[0.023718, 0.074908, 0.00015989, -0.017414000000000002]
[0.0143593, 0.023900000000000005, 0.04552689, -0.003548000000000001]
[0.009612800000000001, -0.019595999999999995, 0.06542789, 0.0039689999999999994]
[0.0683948, 0.03981300000000001, 0.03688389, -0.0021173000000000008]
[0.04776380000000001, 0.024666000000000007, 0.04907389, 0.0023350999999999997]
[0.04893240000000001, 0.06201600000000001, 0.00469489, -0.0414059]
[0.03370440000000001, -0.0027729999999999908, 0.06226289, -0.032673400000000005]
[0.02839720000000001, -0.003745649999999991, 0.06008359, -0.022247400000000007]
[0.06892120000000002, 0.053056350000000016, 0.04039059, -0.02198461000000001]
[0.05048220000000002, -0.033418649999999994, 0.11718659000000001, -0.028652810000000008]
[0.04921980000000002, 0.06979735000000001, 0.08006559, -0.08983781000000002]
[0.01933680000000002, 0.07292185000000001, 0.08456969, -0.08914830000000001]
[0.00178780000000002, 0.07211474000000001, 0.07699229, -0.09285530000000002]
[-0.014241199999999982, 0.06822444000000001, 0.09319229000000001, -0.07375230000000002]
[0.0015688000000000195, 0.07691534000000001, 0.07005429, -0.06551110000000002]
[0.02872980000000002, 0.03490934000000002, 0.11196829, -0.06381300000000002]
[0.02988900000000002, 0.06712834000000002, 0.07766629, -0.09227000000000002]
[0.017465000000000022, 0.04995334000000003, 0.07241099, -0.09437360000000002]
[0.012364700000000022, 0.047594240000000024, 0.07261371999999999, -0.08674020000000002]
[0.003383800000000022, 0.0027322400000000177, 0.09462272, -0.08166710000000002]
[0.04284380000000002, 0.07124624000000002, 0.07917972, -0.08724910000000002]
[0.026023800000000024, 0.0031252400000000152, 0.15057772, -0.07392610000000002]
[0.011242800000000023, 0.004552940000000016, 0.13895572, -0.07878400000000002]
[0.06254480000000003, 0.09125594000000001, 0.11004272000000001, -0.09387000000000002]
[0.06682780000000002, 0.08175784000000001, 0.09931172, -0.09065900000000002]
[0.045936800000000014, 0.07691564000000001, 0.11635172, -0.07322400000000001]
[0.025274800000000014, 0.07861234, 0.10629772000000001, -0.08152150000000001]
[0.021793800000000012, 0.07474274, 0.10151362000000001, -0.07525880000000001]
[0.024037000000000013, 0.06952804, 0.09747502000000001, -0.06324180000000001]
[0.03467400000000001, 0.10648504, 0.05588102000000001, -0.08262080000000002]
[0.05916000000000001, 0.04331004000000001, 0.13551302, -0.08056060000000002]
[0.05919120100000001, 0.0032490400000000086, 0.15346902, -0.07138840000000002]
[0.05904218100000001, -0.006993959999999992, 0.14406662, -0.06489290000000002]
[0.056262181000000015, 0.07488704000000002, 0.11272862, -0.09016890000000002]
[0.04752818100000002, 0.07455586000000002, 0.11071212, -0.08459150000000003]
[0.041502781000000016, 0.09179286000000002, 0.08921111999999999, -0.09229420000000003]
[0.034528281000000015, 0.07412086000000001, 0.08576371999999999, -0.09353140000000003]
[0.047711281000000015, 0.09313786000000002, 0.052652719999999986, -0.09288069000000003]
[0.028302281000000012, 0.006289860000000022, 0.14420271999999998, -0.08347579000000002]
[0.07198628100000001, 0.10300786000000002, 0.10459671999999998, -0.11510079000000002]
[0.052020281000000015, 0.008006860000000018, 0.20141672, -0.11638969000000002]
[0.08679628100000002, 0.09611686000000003, 0.16953072, -0.12561819000000002]
[0.08110858100000001, 0.11029086000000003, 0.15527871999999998, -0.13686419000000002]
[0.07896918100000001, 0.10346216000000003, 0.15624403999999997, -0.12489919000000002]
[0.06936218100000001, 0.13042516000000004, 0.12501803999999997, -0.13802019000000001]
[0.08953918100000001, 0.14840716000000004, 0.09543703999999997, -0.13592119000000003]
[0.099733181, 0.15943616000000005, 0.07243703999999998, -0.12998169000000004]
[0.084933181, 0.054192160000000045, 0.17161304, -0.13500769000000004]
[0.097013181, 0.09493616000000005, 0.12397804, -0.16113669000000003]
[0.102636381, 0.10495116000000004, 0.10125203999999999, -0.16119717600000003]
[0.088749381, 0.05617816000000004, 0.16602603999999999, -0.15777927600000002]
[0.102267381, 0.06677316000000004, 0.14258903999999997, -0.15377947600000003]
[0.100537781, 0.05495716000000004, 0.15640703999999997, -0.14644347600000002]
[0.083896781, 0.04127916000000004, 0.17637703999999998, -0.14121517600000003]
[0.090061981, 0.08022316000000004, 0.12910203999999997, -0.18516317600000004]
[0.087587481, 0.09959116000000004, 0.10440503999999998, -0.19321497600000004]
[0.06940048099999999, 0.009225160000000038, 0.19456703999999997, -0.19443927600000005]
[0.07283448099999999, 0.010466660000000037, 0.19169373999999997, -0.19297387600000004]
[0.04256948099999999, 0.009845780000000037, 0.19855413999999996, -0.19352573600000003]
[0.015705480999999993, 0.008873130000000036, 0.20472043999999998, -0.19291381600000004]
[0.06378248099999999, 0.031200130000000034, 0.20208703999999997, -0.17737981600000005]
[0.062610881, 0.03724233000000003, 0.19822833999999998, -0.17797046600000005]
[0.05347908099999999, 0.017129330000000033, 0.19627183999999998, -0.17730681600000006]
[0.03099708099999999, 0.04804433000000004, 0.17230283999999998, -0.20401781600000007]
[0.03804608099999999, 0.04976173000000004, 0.15444384, -0.20040591600000007]
[0.05024408099999999, 0.07074373000000003, 0.12248984, -0.19912161600000008]
[0.03683008099999999, 0.051581730000000034, 0.12093604000000001, -0.20032001600000007]
[0.026714080999999987, 0.04967793000000004, 0.11187634, -0.2002899860000001]
[0.028735680999999985, 0.06885993000000004, 0.07904834, -0.2064667860000001]
[0.010252680999999986, 0.07196373000000005, 0.08678274, -0.1922777860000001]
[0.0028202809999999853, 0.06867353000000004, 0.08250423999999999, -0.1899460860000001]
[0.04484728099999999, 0.07094963000000004, 0.09211504, -0.1802178860000001]
[0.06075128099999999, 0.09307063000000004, 0.06093203999999999, -0.1813903860000001]
[0.05465378099999999, 0.05305063000000004, 0.07940304, -0.1753733860000001]
[0.06209658099999999, 0.015327630000000043, 0.09553403999999999, -0.1596193860000001]
[0.052046580999999995, 0.016175940000000045, 0.09307203999999998, -0.1550505860000001]
[0.049857781, -0.005862059999999957, 0.09211803999999998, -0.1494084860000001]
[0.021028781, 0.03310194000000004, 0.09023003999999998, -0.16108048600000008]
[0.020005381, 0.051290940000000035, 0.06806103999999999, -0.16675298600000008]
[0.003976380999999998, 0.047400640000000036, 0.08426104, -0.14764998600000007]
[-0.019820619000000005, 0.03299864000000004, 0.09553404, -0.14604238600000008]
[-0.018608019000000003, 0.03523334000000004, 0.09080134, -0.13633998600000008]
[-0.028033519000000003, 0.03562641000000004, 0.08838214, -0.13318068600000008]
[0.02931948099999999, 0.08843441000000005, 0.06578413999999999, -0.13242652600000007]
[0.068551481, 0.055967410000000044, 0.10036313999999999, -0.12405602600000007]
[0.083628481, 0.07556341000000004, 0.06977913999999999, -0.12528032600000008]
[0.067947481, 0.0031174100000000426, 0.13531613999999997, -0.12655632600000008]
[0.06793462900000001, 0.004503710000000043, 0.13335103999999998, -0.1264745720000001]
[0.07974562900000001, 0.08835071000000005, 0.11278403999999997, -0.1355090720000001]
[0.05694162900000001, 0.08528811000000006, 0.12613103999999997, -0.1217460720000001]
[0.04451762900000001, 0.06811311000000006, 0.12087573999999997, -0.12384967200000009]
[0.027811629000000008, 0.04721311000000006, 0.13671573999999997, -0.11673347200000009]
[0.022123929000000007, 0.06138711000000006, 0.12246373999999997, -0.1279794720000001]
[0.02215513000000001, 0.021326110000000058, 0.14041973999999996, -0.11880727200000009]
[0.018074730000000008, 0.026747510000000058, 0.13514723999999995, -0.1122212720000001]
[0.017925710000000008, 0.016504510000000056, 0.12574483999999994, -0.10572577200000009]
[0.06393971000000001, 0.07276851000000006, 0.10450983999999994, -0.1037948720000001]
[0.06368657000000001, 0.07103021000000007, 0.10337593999999994, -0.09159687200000009]
[0.04520357000000001, 0.07413401000000007, 0.11111033999999995, -0.0774078720000001]
[0.04683937000000001, 0.04055001000000007, 0.12485933999999994, -0.0638388720000001]
[0.03820547000000001, 0.05989801000000007, 0.10113033999999994, -0.0747358720000001]
[0.02941807000000001, 0.03777701000000007, 0.10061332999999995, -0.07373602200000011]
[0.02694357000000001, 0.057145010000000065, 0.07591632999999995, -0.08178782200000011]
[0.01936427000000001, 0.08249401000000006, 0.045452329999999944, -0.09441682200000011]
[-0.014519729999999988, 0.0003440100000000612, 0.14876732999999995, -0.08459812200000011]
[-0.024635729999999988, -0.0015597899999999388, 0.13970762999999994, -0.08456809200000011]
[0.01419627000000001, 0.062463210000000075, 0.11538762999999994, -0.09440439200000011]
[-0.01000172999999999, 0.060021410000000074, 0.12240222999999993, -0.09022349200000011]
[0.04358427000000001, 0.09757841000000007, 0.10505722999999993, -0.0794344920000001]
[0.028332270000000007, 0.03504441000000007, 0.15858122999999993, -0.0734432920000001]
[0.07403927000000002, 0.10713841000000006, 0.12578722999999994, -0.0883872920000001]
[0.057219270000000017, 0.03901741000000006, 0.19718522999999993, -0.0750642920000001]
[0.06929927000000002, 0.07976141000000006, 0.14955022999999995, -0.1011932920000001]
[0.047625270000000025, 0.08100291000000007, 0.13908522999999995, -0.1098140920000001]
[0.058177270000000024, 0.09285991000000007, 0.11267422999999996, -0.1087107920000001]
[0.04418227000000002, 0.07369791000000007, 0.13782822999999997, -0.1027195920000001]
[0.06449227000000002, 0.09221791000000007, 0.10770722999999996, -0.1026895620000001]
[0.06515356000000001, 0.11713191000000008, 0.07830622999999995, -0.1089051620000001]
[0.10557556000000001, 0.07322191000000008, 0.12577222999999996, -0.09753516200000009]
[0.09094756000000001, 0.05751591000000009, 0.15012922999999995, -0.09255256200000009]
[0.052894560000000014, 0.08178891000000009, 0.15693822999999996, -0.1034235620000001]
[0.06870456000000001, 0.09047981000000009, 0.13380022999999996, -0.09518236200000009]
[0.05972366000000001, 0.045617810000000085, 0.15580922999999997, -0.09010926200000009]
[0.06490366000000002, 0.048204310000000083, 0.14740072999999998, -0.08049746200000009]
[0.06500027300000001, 0.08381631000000009, 0.10333072999999998, -0.12460046200000009]
[0.03908827300000001, 0.08276091000000009, 0.11612872999999999, -0.11418646200000009]
[0.020306273000000007, 0.016895910000000083, 0.16461473, -0.11440212200000009]
[0.029346973000000005, 0.050603910000000085, 0.11962772999999999, -0.15136712200000008]
[0.027207573000000006, 0.043775210000000085, 0.12059305, -0.13940212200000007]
[0.03740157300000001, 0.05480421000000009, 0.09759304999999999, -0.1334626220000001]
[0.027794573000000006, 0.08176721000000009, 0.06636704999999998, -0.14658362200000008]
[0.010806573000000007, 0.010604210000000086, 0.12426904999999998, -0.1449113220000001]
[0.06367457300000001, 0.04317421000000009, 0.11054804999999998, -0.13324332200000008]
[0.03681057300000001, 0.04220156000000009, 0.11671434999999998, -0.1326314020000001]
[0.035541573000000014, 0.030696560000000088, 0.10720054999999998, -0.1268471020000001]
[0.045658573000000015, 0.03971856000000009, 0.08369454999999998, -0.1225757020000001]
[0.04676177300000001, 0.05945956000000009, 0.050026549999999975, -0.1291016020000001]
[0.031533773000000015, -0.005329439999999908, 0.10759454999999998, -0.12036910200000009]
[0.010323773000000015, -0.0058882399999999075, 0.12708455, -0.10683910200000009]
[0.045479773000000015, 0.09600276000000009, 0.08432555, -0.1566191020000001]
[0.020655773000000013, 0.02295676000000009, 0.15271555, -0.1625244020000001]
[0.011230273000000013, 0.02334983000000009, 0.15029635, -0.1593651020000001]
[0.069749273, 0.0772548300000001, 0.12625935, -0.1599816220000001]
[0.061115373, 0.0966028300000001, 0.10253034999999999, -0.1708786220000001]
[0.035450373, 0.0277788300000001, 0.17794634999999998, -0.16380122200000008]
[0.06348337300000001, 0.1186408300000001, 0.14427834999999997, -0.1740252220000001]
[0.068564673, 0.1234207300000001, 0.12447434999999997, -0.16825382200000008]
[0.052883673000000006, 0.05097473000000011, 0.19001134999999997, -0.16952982200000008]
[0.031209673000000004, 0.052216230000000106, 0.17954634999999997, -0.1781506220000001]
[0.034973373, 0.043980430000000105, 0.18740064999999997, -0.1706982220000001]
[0.048491373000000004, 0.054575430000000105, 0.16396364999999996, -0.1666984220000001]
[0.027600373, 0.04973323000000011, 0.18100364999999996, -0.1492634220000001]
[0.027587521, 0.05111953000000011, 0.17903854999999996, -0.1491816680000001]
[0.029129821, 0.052298930000000105, 0.16221554999999996, -0.1432292680000001]
[0.014225821, 0.030115930000000103, 0.17826954999999994, -0.1342898680000001]
[0.073007821, 0.08952493000000011, 0.14972554999999993, -0.14037616800000008]
[0.064135021, 0.11760493000000011, 0.11829354999999993, -0.15241116800000007]
[0.049354021, 0.11903263000000011, 0.10667154999999993, -0.15726906800000007]
[0.03164102099999999, 0.0113676300000001, 0.20885554999999995, -0.16731206800000006]
[0.07956702099999999, 0.0284386300000001, 0.20833853999999993, -0.15238606800000007]
[0.06201802099999999, 0.0276315200000001, 0.20076113999999992, -0.15609306800000006]
[0.076914021, 0.0619195200000001, 0.1604521399999999, -0.17035206800000005]
[0.074774621, 0.0550908200000001, 0.1614174599999999, -0.15838706800000005]
[0.062530621, 0.0725758200000001, 0.1466164599999999, -0.17256806800000005]
[0.060801021, 0.060759820000000096, 0.1604344599999999, -0.16523206800000004]
[0.06324042099999999, 0.0754928200000001, 0.14624245999999988, -0.17108556800000005]
[0.06390171099999999, 0.1004068200000001, 0.11684145999999987, -0.17730116800000004]
[0.07609971099999999, 0.1213888200000001, 0.08488745999999987, -0.17601686800000005]
[0.05543771099999999, 0.1230855200000001, 0.07483345999999988, -0.18431436800000006]
[0.038617710999999985, 0.0549645200000001, 0.14623145999999987, -0.17099136800000006]
[0.049254710999999986, 0.0919215200000001, 0.10463745999999988, -0.19037036800000007]
[0.03508071099999999, 0.0693865200000001, 0.11981745999999988, -0.18417226800000006]
[0.025030710999999987, 0.07023483000000011, 0.11735545999999987, -0.17960346800000004]
[0.03558271099999999, 0.08209183000000012, 0.09094445999999987, -0.17850016800000004]
[0.02859481099999999, 0.04832083000000011, 0.13215545999999986, -0.16345716800000004]
[0.0057908109999999895, 0.045258230000000114, 0.14550245999999986, -0.14969416800000004]
[-0.001641589000000011, 0.041968030000000114, 0.14122395999999987, -0.14736246800000005]
[-0.001610388000000011, 0.001907030000000115, 0.15917995999999987, -0.13819026800000006]
[-0.002633788000000011, 0.020096030000000115, 0.13701095999999988, -0.14386276800000006]
[0.00037431199999998907, 0.021834130000000115, 0.11946895999999987, -0.13897066800000005]
[0.05099131199999999, 0.018254230000000114, 0.12393875999999987, -0.12898386800000006]
[0.105012312, 0.04929323000000012, 0.11240275999999987, -0.11333286800000006]
[0.063583312, 0.07704223000000013, 0.11922885999999987, -0.12053126800000005]
[0.063330172, 0.07530393000000013, 0.11809495999999987, -0.10833326800000005]
[0.029726172000000002, 0.07203433000000013, 0.13941895999999987, -0.10231626800000006]
[0.035731172000000005, 0.09136133000000013, 0.10653095999999987, -0.10555776800000005]
[0.019880172000000005, 0.06979933000000013, 0.12361295999999987, -0.09654076800000005]
[0.005786172000000004, 0.04854733000000013, 0.12257325999999986, -0.09846326800000005]
[-0.012696827999999995, 0.05165113000000013, 0.13030765999999985, -0.08427426800000004]
[-0.006691827999999994, 0.06164563000000013, 0.10818165999999985, -0.08330027800000005]
[0.035714172, 0.03679363000000013, 0.12426165999999984, -0.07614527800000005]
[0.044754872, 0.07050163000000013, 0.07927465999999983, -0.11311027800000005]
[0.039447672, 0.06952898000000013, 0.07709535999999984, -0.10268427800000005]
[0.028892672, 0.07747488000000013, 0.06012735999999984, -0.10736107800000004]
[0.005593672000000001, -0.022057119999999875, 0.14488335999999985, -0.12609407800000005]
[0.010773672000000001, -0.019470619999999876, 0.13647485999999986, -0.11648227800000005]
[0.047440672, 0.02354938000000012, 0.14206715999999986, -0.11310317800000005]
[0.06325067200000001, 0.03224028000000012, 0.11892915999999985, -0.10486197800000005]
[0.028645672000000004, 0.05914128000000012, 0.12054565999999986, -0.11508597800000005]
[0.027376672000000005, 0.04763628000000012, 0.11103185999999986, -0.10930167800000004]
[0.037570672000000006, 0.058665280000000125, 0.08803185999999985, -0.10336217800000004]
[0.021541672000000005, 0.054774980000000126, 0.10423185999999986, -0.08425917800000005]
[0.008127672000000006, 0.03561298000000013, 0.10267805999999986, -0.08545757800000005]
[0.04986367200000001, 0.06894898000000013, 0.08843405999999986, -0.07941467800000004]
[0.04107627200000001, 0.04682798000000013, 0.08791704999999986, -0.07841482800000005]
[0.02041427200000001, 0.04852468000000013, 0.07786304999999985, -0.08671232800000005]
[0.00985927200000001, 0.05647058000000013, 0.06089504999999985, -0.09138912800000004]
[-0.009256727999999992, -0.005132419999999874, 0.11695504999999985, -0.08653582800000004]
[-0.006304727999999992, 0.04372358000000013, 0.06546504999999986, -0.14885882800000005]
[0.00959927200000001, 0.06584458000000012, 0.034282049999999856, -0.15003132800000005]
[0.05296427200000001, 0.03000458000000012, 0.07116604999999986, -0.14254012800000004]
[0.06877427200000001, 0.03869548000000012, 0.04802804999999985, -0.13429892800000004]
[0.07436817200000001, 0.03559148000000012, 0.04985874999999985, -0.12983362800000003]
[0.028598172000000012, 0.07010648000000011, 0.05653064999999985, -0.13930782800000002]
[0.03604097200000001, 0.03238348000000011, 0.07266164999999986, -0.12355382800000002]
[0.04623497200000001, 0.043412480000000114, 0.049661649999999856, -0.11761432800000002]
[0.01635197200000001, 0.04653698000000012, 0.05416574999999985, -0.11692481800000001]
[-0.006635027999999994, -0.005733019999999887, 0.11046574999999986, -0.10775261800000001]
[0.0067139720000000055, 0.05545598000000011, 0.11511544999999987, -0.102770018]
[0.005444972000000005, 0.04395098000000011, 0.10560164999999987, -0.096985718]
[-0.012104027999999992, 0.04314387000000011, 0.09802424999999987, -0.100692718]
[-0.010891427999999993, 0.04537857000000011, 0.09329154999999986, -0.090990318]
[-0.010860226999999993, 0.005317570000000112, 0.11124754999999986, -0.081818118]
[0.03838877300000001, 0.012208170000000112, 0.11898194999999986, -0.069723118]
[0.015584773000000007, 0.009145570000000111, 0.13232894999999986, -0.055960118]
[0.006950873000000007, 0.028493570000000114, 0.10859994999999986, -0.06685711800000001]
[0.046212873000000015, 0.08879257000000011, 0.08844394999999985, -0.06751242800000001]
[0.028166873000000016, 0.02065157000000012, 0.15546294999999988, -0.055831428000000016]
[0.031174973000000016, 0.02238967000000012, 0.13792094999999988, -0.05093932800000002]
[0.043254973000000016, 0.06313367000000011, 0.09028594999999988, -0.07706832800000002]
[0.034382173000000016, 0.09121367000000011, 0.05885394999999988, -0.08910332800000002]
[0.025648173000000017, 0.09088249000000011, 0.05683744999999988, -0.08352592800000003]
[0.05940417300000002, 0.0499314900000001, 0.10050744999999989, -0.07282792800000003]
[0.05061677300000002, 0.0278104900000001, 0.09999043999999989, -0.07182807800000003]
[0.05662177300000002, 0.0471374900000001, 0.06710243999999989, -0.07506957800000003]
[0.040770773000000024, 0.0255754900000001, 0.08418443999999989, -0.06605257800000003]
[0.03181387300000002, 0.0556004900000001, 0.048117439999999886, -0.10050957800000003]
[0.00512887300000002, -0.0489185099999999, 0.13925643999999987, -0.11783257800000004]
[-0.01593012699999998, -0.0371035099999999, 0.13392403999999988, -0.12610417800000004]
[0.01596587300000002, 0.0204224900000001, 0.13207033999999987, -0.12911287800000004]
[0.0065403730000000194, 0.020815560000000097, 0.12965113999999986, -0.12595357800000004]
[-0.006873626999999979, 0.001653560000000099, 0.12809733999999987, -0.12715197800000003]
[0.021159373000000023, 0.0925155600000001, 0.09442933999999986, -0.13737597800000004]
[0.07228837300000002, 0.0875284600000001, 0.10071563999999986, -0.12618697800000003]
[0.04600237300000001, 0.0893286600000001, 0.11867163999999986, -0.11645877800000003]
[0.02432837300000001, 0.09057016000000011, 0.10820663999999985, -0.12507957800000002]
[0.024075233000000012, 0.08883186000000011, 0.10707273999999986, -0.11288157800000002]
[0.02047273300000001, 0.04434186000000011, 0.12813973999999986, -0.10345077800000002]
[0.014328533000000011, 0.04343128000000011, 0.12495793999999986, -0.09842937800000003]
[0.01766103300000001, 0.0765392800000001, 0.07987693999999987, -0.13854937800000003]
[-0.00800396699999999, 0.007715280000000102, 0.15529293999999988, -0.13147197800000002]
[-0.008016818999999991, 0.009101580000000102, 0.15332783999999988, -0.13139022400000003]
[-0.015449218999999991, 0.005811380000000102, 0.1490493399999999, -0.12905852400000004]
[-0.008400218999999992, 0.007528780000000102, 0.1311903399999999, -0.12544662400000003]
[0.018805781000000008, 0.09834978000000011, 0.0980793399999999, -0.13512772400000003]
[0.008689781000000008, 0.09644598000000011, 0.0890196399999999, -0.13509769400000005]
[0.010325581000000007, 0.06286198000000011, 0.1027686399999999, -0.12152869400000005]
[0.004300181000000007, 0.08009898000000011, 0.08126763999999989, -0.12923139400000005]
[0.05631218100000001, 0.08336838000000012, 0.0830641399999999, -0.11743439400000005]
[0.05121188100000001, 0.08100928000000011, 0.0832668699999999, -0.10980099400000005]
[0.033024881000000006, -0.009356719999999888, 0.1734288699999999, -0.11102529400000005]
[0.07144188100000001, 0.09085828000000011, 0.13072986999999991, -0.16018429400000006]
[0.07148242600000002, 0.09714878000000012, 0.12431776999999991, -0.15260259400000006]
[0.05625442600000002, 0.032359780000000116, 0.18188576999999992, -0.14387009400000006]
[0.07075542600000001, 0.06842678000000012, 0.1413287699999999, -0.15983609400000007]
[0.066461426, 0.06695748000000011, 0.1417714199999999, -0.16139659400000006]
[0.052287426000000005, 0.04442248000000011, 0.1569514199999999, -0.15519849400000005]
[0.04820702600000001, 0.04984388000000011, 0.15167891999999988, -0.14861249400000004]
[0.024410026000000005, 0.03544188000000011, 0.1629519199999999, -0.14700489400000005]
[0.015278226000000004, 0.015328880000000114, 0.1609954199999999, -0.14634124400000006]
[0.05701422600000001, 0.04866488000000012, 0.14675141999999988, -0.14029834400000007]
[0.04459022600000001, 0.03148988000000012, 0.1414961199999999, -0.14240194400000009]
[0.03364922600000001, 0.05456188000000012, 0.1162591199999999, -0.15685494400000008]
[0.01886822600000001, 0.055989580000000115, 0.1046371199999999, -0.16171284400000008]
[0.02394952600000001, 0.06076948000000011, 0.0848331199999999, -0.15594144400000007]
[0.01459082600000001, 0.009761480000000114, 0.1302001199999999, -0.14207544400000008]
[0.00890312600000001, 0.023935480000000113, 0.11594811999999989, -0.15332144400000008]
[-0.00022867399999999122, 0.003822480000000114, 0.11399161999999989, -0.1526577940000001]
[0.047848326000000004, 0.026149480000000114, 0.1113582199999999, -0.1371237940000001]
[0.041889626000000006, 0.05096048000000011, 0.08268521999999989, -0.1461065940000001]
[0.016470626000000006, 0.04438008000000011, 0.1095272199999999, -0.1341545940000001]
[0.029988626000000004, 0.054975080000000114, 0.0860902199999999, -0.1301547940000001]
[0.013347626000000005, 0.04129708000000011, 0.1060602199999999, -0.1249264940000001]
[0.007322226000000005, 0.05853408000000011, 0.0845592199999999, -0.1326291940000001]
[0.04897622600000001, 0.024039080000000115, 0.1209892199999999, -0.12175019400000009]
[0.04770722600000001, 0.012534080000000114, 0.1114754199999999, -0.11596589400000008]
[0.03100122600000001, -0.008365919999999884, 0.1273154199999999, -0.10884969400000008]
[0.08121522600000002, 0.07239808000000011, 0.0968004199999999, -0.12600469400000008]
[0.05701722600000002, 0.06995628000000012, 0.1038150199999999, -0.12182379400000008]
[0.046462226000000016, 0.07790218000000013, 0.0868470199999999, -0.12650059400000008]
[0.03571822600000002, 0.014789180000000124, 0.1403970199999999, -0.11845339400000007]
[0.02708432600000002, 0.03413718000000013, 0.1166680199999999, -0.12935039400000006]
[0.02818752600000002, 0.05387818000000013, 0.0830000199999999, -0.13587629400000006]
[0.03563032600000002, 0.01615518000000013, 0.0991310199999999, -0.12012229400000006]
[0.04782832600000002, 0.03713718000000013, 0.0671770199999999, -0.11883799400000006]
[0.06800532600000002, 0.05511918000000013, 0.03759601999999991, -0.11673899400000005]
[0.06440282600000002, 0.010629180000000127, 0.05866301999999991, -0.10730819400000005]
[0.026349826000000028, 0.03490218000000013, 0.06547201999999991, -0.11817919400000006]
[0.025178226000000026, 0.04094438000000013, 0.06161331999999991, -0.11876984400000005]
[-0.0016857739999999732, 0.03997173000000013, 0.06777961999999992, -0.11815792400000005]
[0.04005022600000003, 0.07330773000000013, 0.053535619999999916, -0.11211502400000005]
[0.05024422600000003, 0.08433673000000012, 0.030535619999999916, -0.10617552400000005]
[0.012741226000000029, -0.05024926999999989, 0.2064676199999999, -0.13394652400000004]
[0.04097322600000003, 0.05826373000000011, 0.1750016199999999, -0.17373052400000005]
[0.03406542600000003, 0.05325603000000011, 0.1714599199999999, -0.16898072400000005]
[0.02896512600000003, 0.050896930000000104, 0.17166264999999992, -0.16134732400000004]
[0.01891512600000003, 0.0517452400000001, 0.16920064999999992, -0.15677852400000003]
[0.03922512600000003, 0.0702652400000001, 0.13907964999999992, -0.15674849400000004]
[0.03312762600000003, 0.030245240000000104, 0.1575506499999999, -0.15073149400000005]
[0.026153126000000027, 0.012573240000000104, 0.15410324999999991, -0.15196869400000004]
[0.06546312600000004, 0.031114240000000105, 0.15386899999999992, -0.13965469400000005]
[0.04037912600000004, 0.028837940000000103, 0.16874899999999993, -0.12758569400000006]
[0.05618912600000005, 0.037528840000000105, 0.14561099999999993, -0.11934449400000005]
[0.06136912600000005, 0.0401153400000001, 0.13720249999999995, -0.10973269400000005]
[0.04646512600000005, 0.017932340000000102, 0.15325649999999996, -0.10079329400000005]
[0.08572712600000006, 0.0782313400000001, 0.13310049999999995, -0.10144860400000005]
[0.06724412600000006, 0.0813351400000001, 0.14083489999999996, -0.08725960400000005]
[0.06699098600000006, 0.0795968400000001, 0.13970099999999996, -0.07506160400000005]
[0.07127398600000005, 0.0700987400000001, 0.12896999999999997, -0.07185060400000004]
[0.07025058600000006, 0.0882877400000001, 0.10680099999999998, -0.07752310400000004]
[0.04234258600000006, 0.031154740000000097, 0.16633099999999998, -0.07292850400000003]
[0.039635786000000055, 0.0638287400000001, 0.13076899999999997, -0.10381650400000003]
[0.03555538600000006, 0.0692501400000001, 0.12549649999999996, -0.09723050400000004]
[0.04156038600000006, 0.0885771400000001, 0.09260849999999995, -0.10047200400000003]
[0.04154753400000006, 0.08996344000000009, 0.09064339999999996, -0.10039025000000003]
[0.04379073400000006, 0.08474874000000009, 0.08660479999999995, -0.08837325000000003]
[0.049795734000000064, 0.09474324000000009, 0.06447879999999995, -0.08739926000000003]
[0.026496734000000063, -0.00478875999999992, 0.14923479999999995, -0.10613226000000003]
[0.005837734000000063, 0.005723240000000079, 0.14460499999999996, -0.11710626000000003]
[0.04356873400000007, 0.07779624000000007, 0.12779099999999996, -0.12658046000000003]
[0.05947273400000007, 0.09991724000000007, 0.09660799999999996, -0.12775296000000003]
[0.04547773400000007, 0.08075524000000008, 0.12176199999999995, -0.12176176000000002]
[0.04374813400000007, 0.06893924000000007, 0.13557999999999995, -0.11442576000000003]
[0.06107913400000008, 0.10848324000000006, 0.08816799999999994, -0.13944276000000003]
[0.054934934000000074, 0.10757266000000007, 0.08498619999999994, -0.13442136000000002]
[0.03908393400000007, 0.08601066000000007, 0.10206819999999994, -0.12540436000000002]
[0.018192934000000067, 0.08116846000000007, 0.11910819999999994, -0.10796936000000001]
[0.021626934000000066, 0.08240996000000007, 0.11623489999999995, -0.10650396000000001]
[0.014194534000000066, 0.07911976000000007, 0.11195639999999994, -0.10417226]
[0.006615234000000066, 0.10446876000000006, 0.08149239999999994, -0.11680126]
[-0.011460765999999935, 0.016337760000000062, 0.16857839999999996, -0.11896946]
[-0.011210635999999935, 0.05033576000000006, 0.12425139999999996, -0.16162446]
[-0.027061635999999938, 0.02877376000000006, 0.14133339999999994, -0.15260746]
[-0.021980335999999937, 0.03355366000000006, 0.12152939999999994, -0.14683606]
[0.027381664000000066, 0.10959966000000007, 0.09810039999999993, -0.15536625999999998]
[0.017789364000000064, 0.04247166000000008, 0.14795739999999993, -0.15207765999999998]
[0.016765964000000064, 0.060660660000000075, 0.12578839999999994, -0.15775015999999997]
[0.024172664000000066, 0.07795966000000007, 0.09382539999999995, -0.15920715999999996]
[-0.0021133359999999345, 0.07975986000000007, 0.11178139999999995, -0.14947895999999997]
[-0.007213635999999935, 0.07740076000000007, 0.11198412999999995, -0.14184555999999995]
[-0.02087363599999994, 0.07924236000000007, 0.12103802999999995, -0.12603955999999994]
[0.018655364000000063, 0.05569436000000007, 0.14483002999999994, -0.12121215999999994]
[0.023835364000000064, 0.058280860000000066, 0.13642152999999996, -0.11160035999999994]
[0.005352364000000064, 0.06138466000000006, 0.14415592999999996, -0.09741135999999995]
[0.05246636400000007, 0.08213966000000006, 0.14145392999999995, -0.08503235999999995]
[0.07264336400000007, 0.10012166000000006, 0.11187292999999995, -0.08293335999999994]
[0.049656364000000064, 0.04785166000000005, 0.16817292999999994, -0.07376115999999994]
[0.05119866400000007, 0.04903106000000005, 0.15134992999999994, -0.06780875999999994]
[0.058016664000000065, 0.09753506000000005, 0.09921692999999993, -0.12885175999999995]
[0.03515666400000006, 0.043051060000000044, 0.15725592999999993, -0.12002865999999995]
[0.02772426400000006, 0.039760860000000044, 0.15297742999999994, -0.11769695999999995]
[0.02014496400000006, 0.06510986000000005, 0.12251342999999994, -0.13032595999999994]
[0.01654246400000006, 0.020619860000000045, 0.14358042999999993, -0.12089515999999993]
[0.06740246400000006, 0.053417860000000046, 0.13087942999999994, -0.10970615999999993]
[0.05797696400000006, 0.05381093000000005, 0.12846022999999993, -0.10654685999999992]
[0.04786096400000006, 0.05190713000000005, 0.11940052999999992, -0.10651682999999992]
[0.06519196400000006, 0.09145113000000005, 0.07198852999999991, -0.13153382999999993]
[0.03132896400000006, -0.03843786999999996, 0.20253352999999993, -0.15873582999999994]
[0.03946456400000006, 0.05312813000000004, 0.18104152999999992, -0.20054982999999993]
[0.024560564000000062, 0.030945130000000036, 0.1970955299999999, -0.19161042999999994]
[0.02048016400000006, 0.036366530000000036, 0.1918230299999999, -0.18502442999999993]
[0.02792296400000006, -0.0013564699999999638, 0.2079540299999999, -0.16927042999999994]
[0.07584896400000006, 0.015714530000000036, 0.2074370199999999, -0.15434442999999995]
[0.06454296400000006, 0.034172530000000034, 0.19386201999999988, -0.16815042999999996]
[0.062403564000000064, 0.027343830000000034, 0.19482733999999988, -0.15618542999999996]
[0.08632056400000007, 0.07290883000000004, 0.14493933999999986, -0.18517242999999994]
[0.08384606400000007, 0.09227683000000003, 0.12024233999999986, -0.19322422999999994]
[0.054856064000000065, 0.08623443000000003, 0.14628733999999988, -0.17944822999999993]
[0.047706664000000065, 0.04178643000000003, 0.1685283399999999, -0.17446562999999993]
[0.06351666400000007, 0.05047733000000003, 0.1453903399999999, -0.16622442999999992]
[0.053466664000000066, 0.051325640000000027, 0.1429283399999999, -0.1616556299999999]
[0.06566466400000007, 0.07230764000000002, 0.11097433999999991, -0.16037132999999992]
[0.048676664000000064, 0.0011446400000000162, 0.1688763399999999, -0.15869902999999994]
[0.09174066400000006, 0.08321264000000002, 0.1410523399999999, -0.17303502999999992]
[0.09517466400000006, 0.08445414000000002, 0.1381790399999999, -0.17156962999999992]
[0.09344506400000006, 0.07263814000000002, 0.1519970399999999, -0.1642336299999999]
[0.09329604400000006, 0.062395140000000016, 0.14259463999999988, -0.15773812999999992]
[0.09110724400000006, 0.040357140000000014, 0.14164063999999987, -0.1520960299999999]
[0.10560824400000006, 0.07642414000000002, 0.10108363999999986, -0.16806202999999992]
[0.09151424400000006, 0.055172140000000015, 0.10004393999999986, -0.1699845299999999]
[0.09710814400000006, 0.05206814000000001, 0.10187463999999986, -0.1655192299999999]
[0.08655314400000005, 0.06001404000000001, 0.08490663999999987, -0.17019602999999991]
[0.04898014400000005, -0.022901959999999992, 0.18793863999999988, -0.16639012999999991]
[0.10184814400000006, 0.00966804000000001, 0.17421763999999987, -0.1547221299999999]
[0.08918114400000006, 0.03785104000000001, 0.14995763999999986, -0.1735841299999999]
[0.08488714400000005, 0.03638174000000001, 0.15040028999999985, -0.17514462999999988]
[0.07071314400000005, 0.01384674000000001, 0.16558028999999985, -0.16894652999999987]
[0.062401044000000044, 0.01423981000000001, 0.16611718999999986, -0.17125702999999987]
[0.04997704400000005, -0.0029351899999999886, 0.16086188999999987, -0.17336062999999988]
[0.08298104400000005, 0.06787581000000001, 0.14760388999999988, -0.1711323299999999]
[0.08408424400000004, 0.08761681000000002, 0.11393588999999987, -0.1776582299999999]
[0.06453324400000005, 0.01786081000000002, 0.16931888999999986, -0.1789471299999999]
[0.09944924400000005, 0.10356981000000003, 0.13899288999999987, -0.1848653299999999]
[0.09246134400000004, 0.06979881000000002, 0.18020388999999987, -0.1698223299999999]
[0.07904734400000005, 0.05063681000000002, 0.17865008999999987, -0.1710207299999999]
[0.06301834400000005, 0.04674651000000002, 0.19485008999999986, -0.1519177299999999]
[0.05341134400000004, 0.07370951000000002, 0.16362408999999986, -0.16503872999999988]
[0.04380434400000004, 0.10067251000000002, 0.13239808999999986, -0.17815972999999988]
[0.045825944000000035, 0.11985451000000003, 0.09957008999999986, -0.1843365299999999]
[0.027965944000000034, 0.03869751000000002, 0.17042808999999987, -0.1964485299999999]
[0.06727594400000003, 0.05723851000000002, 0.17019383999999987, -0.1841345299999999]
[0.07070994400000004, 0.05848001000000002, 0.16732053999999988, -0.1826691299999999]
[0.06852114400000003, 0.03644201000000002, 0.16636653999999987, -0.1770270299999999]
[0.07152924400000003, 0.03818011000000002, 0.14882453999999987, -0.17213492999999988]
[0.04524324400000003, 0.03998031000000002, 0.16678053999999987, -0.1624067299999999]
[0.05579524400000003, 0.05183731000000002, 0.14036953999999988, -0.1613034299999999]
[0.06007824400000003, 0.042339210000000016, 0.12963853999999989, -0.1580924299999999]
[0.06608324400000003, 0.06166621000000001, 0.09675053999999988, -0.1613339299999999]
[0.03581824400000003, 0.061045330000000016, 0.10361093999999989, -0.1618857899999999]
[0.028668844000000027, 0.016597330000000014, 0.12585193999999988, -0.1569031899999999]
[0.025187844000000025, 0.012727730000000013, 0.12106783999999988, -0.15064048999999988]
[0.06415684400000003, 0.08689073, 0.10282283999999989, -0.14923978999999987]
[0.04937584400000003, 0.08831843, 0.0912008399999999, -0.15409768999999987]
[0.04216904400000003, 0.02073543, 0.1496088399999999, -0.14786078999999988]
[0.029502044000000033, 0.04891843, 0.1253488399999999, -0.16672278999999987]
[0.03016333400000003, 0.07383243, 0.0959478399999999, -0.17293838999999986]
[0.03524463400000003, 0.07861233000000001, 0.0761438399999999, -0.16716698999999985]
[0.01244063400000003, 0.07554973000000001, 0.08949083999999989, -0.15340398999999985]
[0.01248117900000003, 0.08184023000000001, 0.08307873999999989, -0.14582228999999985]
[0.05584617900000003, 0.04600023000000001, 0.11996273999999989, -0.13833108999999985]
[0.03020617900000003, 0.02894923000000001, 0.13498873999999988, -0.13505538999999986]
[0.029034579000000033, 0.03499143000000001, 0.1311300399999999, -0.13564603999999986]
[0.021602179000000034, 0.03170123000000001, 0.1268515399999999, -0.13331433999999986]
[0.0031191790000000344, 0.03480503000000001, 0.1345859399999999, -0.11912533999999986]
[0.018015179000000034, 0.06909303, 0.0942769399999999, -0.13338433999999985]
[0.013920079000000033, 0.06754093, 0.0948823899999999, -0.13427240999999984]
[0.012651079000000034, 0.05603593, 0.0853685899999999, -0.12848810999999985]
[0.05540707900000004, 0.029507929999999998, 0.1067435899999999, -0.11904440999999985]
[0.05009987900000004, 0.02853528, 0.10456428999999991, -0.10861840999999985]
[0.04055957900000004, 0.048359280000000004, 0.0814012899999999, -0.12057540999999984]
[0.056369579000000045, 0.057050180000000006, 0.0582632899999999, -0.11233420999999984]
[0.028461579000000046, -8.281999999999734e-05, 0.11779328999999991, -0.10773960999999983]
[0.06453857900000004, 0.06849318, 0.10617128999999992, -0.10491650999999984]
[0.07158757900000004, 0.07021058, 0.08831228999999992, -0.10130460999999984]
[0.07056417900000005, 0.08839957999999999, 0.06614328999999992, -0.10697710999999983]
[0.07210647900000004, 0.08957897999999999, 0.04932028999999992, -0.10102470999999984]
[0.05269747900000004, 0.002730979999999994, 0.1408702899999999, -0.09161980999999983]
[0.09443347900000004, 0.03606698, 0.1266262899999999, -0.08557690999999983]
[0.09229407900000004, 0.02923828, 0.12759160999999988, -0.07361190999999982]
[0.05309007900000004, 0.06996128, 0.12522380999999988, -0.09476290999999983]
[0.07326707900000004, 0.08794328, 0.09564280999999988, -0.09266390999999982]
[0.05578807900000004, 0.029713279999999995, 0.15434180999999988, -0.08054390999999982]
[0.03199107900000003, 0.015311279999999995, 0.1656148099999999, -0.07893630999999982]
[0.020803079000000033, 0.04866828, 0.1521598099999999, -0.09850930999999982]
[0.013828579000000032, 0.03099628, 0.1487124099999999, -0.09974650999999982]
[0.003712579000000032, 0.02909248, 0.1396527099999999, -0.09971647999999982]
[0.005955779000000032, 0.02387778, 0.1356141099999999, -0.08769947999999982]
[0.0012906790000000315, 0.04726078, 0.1058021099999999, -0.09813047999999981]
[0.04558567900000003, 0.023753780000000002, 0.1228501099999999, -0.08903587999999982]
[0.051750879000000034, 0.06269778000000001, 0.07557510999999989, -0.13298387999999983]
[0.04343877900000004, 0.06309085, 0.0761120099999999, -0.13529437999999983]
[0.03101477900000004, 0.04591585000000001, 0.07085670999999989, -0.13739797999999984]
[0.02222737900000004, 0.02379485000000001, 0.0703396999999999, -0.13639812999999984]
[0.0073233790000000396, 0.0016118500000000084, 0.08639369999999989, -0.12745872999999985]
[0.01940337900000004, 0.04235585, 0.038758699999999896, -0.15358772999999987]
[-0.006508620999999961, 0.04130045, 0.0515566999999999, -0.14317372999999986]
[0.0036853790000000407, 0.05232945, 0.0285566999999999, -0.13723422999999985]
[-0.00868362099999996, 0.035423449999999995, 0.0537366999999999, -0.13207062999999986]
[-0.013783920999999961, 0.03306434999999999, 0.0539394299999999, -0.12443722999999986]
[0.03256807900000004, 0.0029773499999999897, 0.08071242999999989, -0.11231722999999985]
[0.04989907900000004, 0.04252134999999999, 0.03330042999999989, -0.13733422999999986]
[0.055904079000000044, 0.05251584999999999, 0.011174429999999885, -0.13636023999999985]
[0.046923179000000044, 0.007653849999999983, 0.03318342999999988, -0.13128713999999986]
[0.025518179000000044, 0.005977649999999983, 0.04639342999999988, -0.13337773999999986]
[0.03296097900000004, -0.03174535000000002, 0.06252442999999988, -0.11762373999999985]
[0.010478979000000041, -0.0008303500000000179, 0.03855542999999988, -0.14433473999999985]
[0.0035711790000000415, -0.005838050000000018, 0.035013729999999875, -0.13958493999999985]
[0.07181917900000004, 0.046348949999999986, 0.009588729999999875, -0.13412393999999986]
[0.05057817900000004, -0.022620050000000017, 0.06558072999999988, -0.13883953999999984]
[0.08968017900000005, 0.038029949999999986, 0.04104672999999988, -0.14566293999999985]
[0.07163417900000005, -0.030111050000000007, 0.10806572999999989, -0.13398193999999986]
[0.09858017900000005, 0.03786495, 0.10403562999999989, -0.12949073999999985]
[0.11889017900000004, 0.05638495, 0.0739146299999999, -0.12946070999999987]
[0.09380617900000005, 0.05410865, 0.0887946299999999, -0.11739170999999987]
[0.08681827900000004, 0.02033765, 0.1300056299999999, -0.10234870999999987]
[0.07913887900000004, 0.05493565, 0.0956006299999999, -0.13662470999999987]
[0.06296287900000004, 0.06586165000000001, 0.09205042999999989, -0.14262050999999987]
[0.06896787900000004, 0.07585615000000001, 0.06992442999999988, -0.14164651999999986]
[0.04210387900000004, 0.0748835, 0.07609072999999988, -0.14103459999999987]
[0.019920879000000037, 0.0623435, 0.10607672999999988, -0.13739679999999987]
[0.03582487900000004, 0.0844645, 0.07489372999999988, -0.13856929999999987]
[0.02972737900000004, 0.0444445, 0.09336472999999988, -0.13255229999999987]
[0.02030187900000004, 0.04483757, 0.09094552999999989, -0.12939299999999987]
[0.07305787900000003, 0.04622387, 0.09215932999999989, -0.11795799999999987]
[0.06345087900000003, 0.07318687, 0.06093332999999988, -0.13107899999999986]
[0.029587879000000032, -0.05670213, 0.19147832999999992, -0.15828099999999987]
[0.03227557900000003, -0.006832129999999999, 0.13997032999999992, -0.22219399999999986]
[0.042392579000000034, 0.0021898700000000017, 0.11646432999999992, -0.21792259999999986]
[0.07775057900000004, 0.06927586999999999, 0.10827862999999992, -0.21313399999999985]
[0.05395357900000004, 0.05487386999999999, 0.11955162999999992, -0.21152639999999986]
[0.05505677900000004, 0.07461487, 0.08588362999999992, -0.21805229999999987]
[0.05626937900000004, 0.07684957, 0.08115092999999991, -0.20834989999999987]
[0.049361579000000044, 0.07184187, 0.07760922999999992, -0.20360009999999987]
[0.02546357900000004, 0.06399917, 0.10775022999999992, -0.19597959999999987]
[0.02186107900000004, 0.019509169999999992, 0.12881722999999992, -0.18654879999999988]
[0.06978707900000004, 0.036580169999999995, 0.1283002199999999, -0.17162279999999988]
[0.06759827900000004, 0.014542169999999993, 0.1273462199999999, -0.16598069999999987]
[0.06763882400000004, 0.020832669999999994, 0.1209341199999999, -0.15839899999999987]
[0.04172682400000004, 0.019777269999999993, 0.1337321199999999, -0.14798499999999987]
[0.04735002400000004, 0.029792269999999996, 0.1110061199999999, -0.14804548599999987]
[0.05035812400000004, 0.031530369999999995, 0.0934641199999999, -0.14315338599999985]
[0.02914812400000004, 0.030971569999999993, 0.11295411999999991, -0.12962338599999984]
[0.044958124000000044, 0.03966246999999999, 0.0898161199999999, -0.12138218599999984]
[0.04494527200000004, 0.04104876999999999, 0.0878510199999999, -0.12130043199999983]
[0.04696687200000004, 0.06023076999999999, 0.0550230199999999, -0.12747723199999983]
[0.03981747200000004, 0.015782769999999988, 0.0772640199999999, -0.12249463199999983]
[0.053335472000000037, 0.026377769999999988, 0.053827019999999906, -0.11849483199999983]
[0.036515472000000035, -0.04174323000000001, 0.1252250199999999, -0.10517183199999983]
[0.07999847200000004, 0.06933576999999999, 0.0843680199999999, -0.14771083199999982]
[0.05564947200000005, -0.02316123000000002, 0.1742900199999999, -0.15271093199999983]
[0.035859472000000045, 0.009139769999999985, 0.1607150199999999, -0.17852993199999984]
[0.03740177200000005, 0.010319169999999985, 0.1438920199999999, -0.17257753199999984]
[0.02497777200000005, -0.006855830000000014, 0.1386367199999999, -0.17468113199999985]
[0.07542977200000006, 0.032108169999999985, 0.12433271999999991, -0.16605203199999985]
[0.09032577200000007, 0.06639616999999998, 0.08402371999999991, -0.18031103199999984]
[0.08374907200000006, 0.038378169999999975, 0.12113871999999992, -0.17033713199999984]
[0.07844187200000007, 0.03740551999999998, 0.11895941999999993, -0.15991113199999984]
[0.07369537200000006, -0.006090480000000023, 0.13886041999999993, -0.15239413199999985]
[0.10847137200000007, 0.08201951999999998, 0.10697441999999993, -0.16162263199999985]
[0.09259437200000006, 0.015947519999999993, 0.16499641999999992, -0.15846333199999985]
[0.05266137200000006, 0.04216551999999999, 0.17128271999999992, -0.17005833199999984]
[0.05609537200000006, 0.04340701999999999, 0.16840941999999992, -0.16859293199999983]
[0.05006997200000006, 0.06064401999999999, 0.14690841999999993, -0.17629563199999984]
[0.05010117300000006, 0.020583019999999994, 0.16486441999999993, -0.16712343199999985]
[0.08240417300000007, 0.09896701999999999, 0.1295164199999999, -0.17927443199999984]
[0.07992967300000006, 0.11833501999999999, 0.10481941999999991, -0.18732623199999984]
[0.059298673000000066, 0.10318801999999999, 0.11700941999999992, -0.18287383199999985]
[0.033633673000000065, 0.034364019999999995, 0.1924254199999999, -0.17579643199999984]
[0.034258923000000066, 0.06366501999999999, 0.1569584199999999, -0.20253343199999985]
[0.041701723000000065, 0.02594201999999999, 0.1730894199999999, -0.18677943199999986]
[0.03574302300000007, 0.05075301999999999, 0.1444164199999999, -0.19576223199999987]
[0.026870223000000068, 0.07883301999999999, 0.1129844199999999, -0.20779723199999986]
[0.021769923000000066, 0.07647391999999999, 0.1131871499999999, -0.20016383199999985]
[0.014337523000000066, 0.07318371999999998, 0.1089086499999999, -0.19783213199999986]
[0.054384523000000067, 0.07777741999999999, 0.1225296499999999, -0.18165113199999985]
[0.040007523000000066, 0.06345741999999999, 0.1436736499999999, -0.17744443199999985]
[0.060184523000000066, 0.08143941999999998, 0.1140926499999999, -0.17534543199999986]
[0.05845492300000007, 0.06962341999999999, 0.1279106499999999, -0.16800943199999985]
[0.044360923000000066, 0.04837141999999999, 0.1268709499999999, -0.16993193199999984]
[0.051409923000000066, 0.05008881999999999, 0.1090119499999999, -0.16632003199999984]
[0.03723592300000007, 0.027553819999999993, 0.1241919499999999, -0.16012193199999983]
[0.042829823000000065, 0.024449819999999994, 0.1260226499999999, -0.15565663199999982]
[0.05302382300000007, 0.035478819999999994, 0.10302264999999991, -0.1497171319999998]
[0.038242823000000065, 0.03690651999999999, 0.09140064999999992, -0.1545750319999998]
[0.08552782300000007, 0.05797151999999999, 0.08857014999999992, -0.1389500319999998]
[0.09070782300000008, 0.06055801999999999, 0.08016164999999992, -0.1293382319999998]
[0.09101001300000007, 0.05004601999999999, 0.09418564999999993, -0.1216013319999998]
[0.08887061300000007, 0.04321731999999999, 0.09515096999999993, -0.1096363319999998]
[0.06721861300000007, 0.07342831999999999, 0.07101896999999993, -0.1338773319999998]
[0.05054161300000007, 0.00189331999999999, 0.14994796999999993, -0.12420083199999979]
[0.05794831300000007, 0.019192319999999992, 0.11798496999999994, -0.1256578319999998]
[0.040884313000000075, 0.05228031999999999, 0.09515596999999994, -0.1476358319999998]
[0.05440231300000008, 0.06287532, 0.07171896999999994, -0.1436360319999998]
[0.03872131300000008, -0.009570679999999998, 0.13725596999999995, -0.1449120319999998]
[0.06592731300000007, 0.08125032000000001, 0.10414496999999995, -0.1545931319999998]
[0.047951313000000065, 0.013564320000000005, 0.17089796999999995, -0.1456019319999998]
[0.03881951300000006, -0.006548679999999994, 0.16894146999999995, -0.1449382819999998]
[0.07701651300000006, 0.08340232, 0.12511146999999995, -0.1852652819999998]
[0.07700366100000007, 0.08478862000000001, 0.12314636999999995, -0.18518352799999982]
[0.07090616100000006, 0.04476862000000001, 0.14161736999999996, -0.17916652799999983]
[0.04102316100000006, 0.04789312000000001, 0.14612146999999998, -0.17847701799999982]
[0.014159161000000059, 0.04692047000000001, 0.15228777, -0.17786509799999983]
[0.0054251610000000585, 0.04658929000000001, 0.15027126999999998, -0.17228769799999982]
[-0.0005335389999999414, 0.07140029, 0.12159826999999998, -0.18127049799999984]
[0.03638846100000006, 0.03181529, 0.16503726999999999, -0.16775349799999983]
[0.08925646100000006, 0.06438529000000001, 0.15131626999999997, -0.15608549799999982]
[0.07516246100000007, 0.04313329000000001, 0.15027656999999997, -0.15800799799999982]
[0.07268796100000006, 0.06250129000000001, 0.12557956999999997, -0.16605979799999981]
[0.07379116100000006, 0.08224229000000002, 0.09191156999999997, -0.17258569799999982]
[0.07603436100000006, 0.07702759000000002, 0.08787296999999997, -0.16056869799999982]
[0.06724696100000006, 0.05490659000000002, 0.08735595999999997, -0.15956884799999982]
[0.059814561000000065, 0.05161639000000002, 0.08307745999999996, -0.15723714799999983]
[0.061450361000000064, 0.018032390000000016, 0.09682645999999996, -0.14366814799999983]
[0.03246036100000006, 0.011989990000000016, 0.12287145999999996, -0.12989214799999982]
[0.052770361000000064, 0.030509990000000018, 0.09275045999999995, -0.12986211799999983]
[0.043897561000000064, 0.058589990000000015, 0.06131845999999995, -0.14189711799999982]
[0.018257561000000064, 0.04153899000000001, 0.07634445999999995, -0.13862141799999983]
[0.013511061000000064, -0.001957009999999988, 0.09624545999999995, -0.13110441799999983]
[0.015532661000000064, 0.017224990000000013, 0.06341745999999995, -0.13728121799999984]
[0.035709661000000066, 0.035206990000000014, 0.03383645999999996, -0.13518221799999985]
[0.018721661000000066, -0.03595600999999999, 0.09173845999999995, -0.13350991799999987]
[0.030532661000000065, 0.047890990000000015, 0.07117145999999995, -0.14254441799999987]
[0.041084661000000064, 0.059747990000000015, 0.04476045999999995, -0.14144111799999987]
[0.028660661000000066, 0.04257299000000002, 0.039505159999999956, -0.14354471799999988]
[0.022516461000000067, 0.04166241000000002, 0.03632335999999996, -0.13852331799999987]
[0.025524561000000067, 0.04340051000000002, 0.01878135999999996, -0.13363121799999986]
[0.05615656100000007, 0.010085510000000013, 0.07008635999999996, -0.12536421799999986]
[0.01472756100000007, 0.037834510000000016, 0.07691245999999996, -0.13256261799999985]
[0.00530206100000007, 0.03822758000000002, 0.07449325999999996, -0.12940331799999985]
[-0.0009663389999999298, -0.02478241999999998, 0.12233625999999997, -0.11834331799999985]
[-0.00864573899999993, 0.009815580000000025, 0.08793125999999997, -0.15261931799999984]
[0.03878626100000007, 0.030901580000000026, 0.08929925999999996, -0.13607631799999984]
[0.03163686100000007, -0.013546419999999976, 0.11154025999999996, -0.13109371799999983]
[0.057241861000000074, 0.07913658000000003, 0.07562725999999996, -0.14465371799999982]
[0.047125861000000074, 0.07723278000000003, 0.06656755999999996, -0.14462368799999983]
[0.029079861000000075, 0.009091780000000035, 0.13358655999999997, -0.13294268799999984]
[0.029741151000000073, 0.03400578000000004, 0.10418555999999995, -0.13915828799999982]
[0.029592131000000074, 0.02376278000000004, 0.09478315999999995, -0.13266278799999984]
[0.029623332000000075, -0.01629821999999996, 0.11273915999999995, -0.12349058799999983]
[0.04027533200000007, 0.06738378000000005, 0.09873515999999995, -0.13999958799999984]
[0.026861332000000075, 0.04822178000000005, 0.09718135999999995, -0.14119798799999983]
[0.025689732000000076, 0.054263980000000045, 0.09332265999999995, -0.14178863799999983]
[0.018781932000000078, 0.04925628000000004, 0.08978095999999995, -0.13703883799999983]
[-0.0018490679999999225, 0.03410928000000004, 0.10197095999999996, -0.13258643799999983]
[0.003232232000000077, 0.03888918000000004, 0.08216695999999996, -0.12681503799999982]
[0.001963232000000077, 0.027384180000000036, 0.07265315999999995, -0.12103073799999982]
[-0.015585767999999922, 0.026577070000000036, 0.06507575999999995, -0.12473773799999982]
[-0.00958076799999992, 0.04590407000000003, 0.032187759999999954, -0.12797923799999983]
[0.036016232000000085, 0.021693070000000033, 0.05860075999999996, -0.11181123799999983]
[0.05192023200000009, 0.04381407000000003, 0.027417759999999958, -0.11298373799999983]
[0.05222242200000009, 0.03330207000000003, 0.04144175999999996, -0.10524683799999983]
[0.036601422000000085, 0.011181070000000033, 0.08403275999999996, -0.10244963799999983]
[0.020425422000000085, 0.022107070000000034, 0.08048255999999995, -0.10844543799999982]
[-0.00023657799999991444, 0.023803770000000033, 0.07042855999999995, -0.11674293799999982]
[0.04189742200000009, -0.0042562299999999685, 0.09054455999999994, -0.11000173799999982]
[0.021612422000000086, 0.03421177000000003, 0.08420105999999994, -0.12175173799999982]
[0.025046422000000085, 0.03545327000000003, 0.08132775999999994, -0.12028633799999981]
[0.07906742200000008, 0.06649227000000003, 0.06979175999999994, -0.10463533799999981]
[0.05688442200000008, 0.05395227000000003, 0.09977775999999994, -0.10099753799999982]
[0.04867912200000008, 0.06047037000000003, 0.09489085999999994, -0.10626913799999982]
[0.06448912200000008, 0.06916127000000002, 0.07175285999999993, -0.09802793799999981]
[0.05206512200000008, 0.05198627000000003, 0.06649755999999993, -0.10013153799999981]
[0.02786712200000008, 0.04954447000000003, 0.07351215999999992, -0.09595063799999981]
[0.02176962200000008, 0.009524470000000028, 0.09198315999999992, -0.08993363799999982]
[0.03964462200000008, 0.05732447000000003, 0.04062115999999993, -0.12229563799999982]
[0.006040622000000079, 0.05405487000000003, 0.06194515999999993, -0.11627863799999982]
[-0.003384877999999921, 0.054447940000000035, 0.05952595999999993, -0.11311933799999982]
[0.004057922000000079, 0.016724940000000035, 0.07565695999999994, -0.09736533799999982]
[-0.0020862779999999206, 0.015814360000000034, 0.07247515999999994, -0.09234393799999982]
[0.03399072200000008, 0.08439036000000003, 0.06085315999999994, -0.08952083799999982]
[0.023246722000000077, 0.021277360000000023, 0.11440315999999995, -0.08147363799999982]
[0.023233870000000077, 0.022663660000000023, 0.11243805999999995, -0.08139188399999982]
[0.03378587000000008, 0.03452066000000002, 0.08602705999999996, -0.08028858399999982]
[0.03896587000000008, 0.03710716000000002, 0.07761855999999996, -0.07067678399999981]
[0.01807487000000008, 0.03226496000000002, 0.09465855999999996, -0.053241783999999806]
[0.0004928700000000792, 0.05966196000000003, 0.06933555999999996, -0.0755817839999998]
[0.03082587000000008, 0.03373396000000003, 0.09251855999999996, -0.0725517839999998]
[0.02717527000000008, 0.06266196000000003, 0.05605755999999996, -0.1031547839999998]
[0.01844127000000008, 0.06233078000000003, 0.05404105999999996, -0.09757738399999981]
[-0.01723972999999992, -0.019799219999999965, 0.15487105999999995, -0.0879008839999998]
[0.018259270000000084, 0.06636578000000004, 0.12207705999999996, -0.09990988399999981]
[0.020280870000000083, 0.08554778000000005, 0.08924905999999996, -0.1060866839999998]
[-0.00960212999999992, 0.08867228000000005, 0.09375315999999996, -0.1053971739999998]
[0.03242487000000008, 0.09094838000000005, 0.10336395999999996, -0.0956689739999998]
[0.01901087000000008, 0.07178638000000005, 0.10181015999999997, -0.0968673739999998]
[0.02244487000000008, 0.07302788000000006, 0.09893685999999997, -0.09540197399999979]
[0.01734457000000008, 0.07066878000000006, 0.09913958999999997, -0.0877685739999998]
[-0.007739429999999919, 0.06839248000000006, 0.11401958999999998, -0.0756995739999998]
[0.03050457000000008, 0.037311480000000063, 0.13855658999999998, -0.0704971739999998]
[0.05068157000000008, 0.05529348000000006, 0.10897558999999998, -0.0683981739999998]
[0.042369470000000076, 0.055686550000000064, 0.10951248999999999, -0.0707086739999998]
[0.03156747000000008, 0.07768255000000007, 0.08365049, -0.08346767399999981]
[0.025542070000000076, 0.09491955000000007, 0.06214948999999999, -0.09117037399999982]
[0.06438807000000007, 0.06458355000000007, 0.08748348999999998, -0.08914897399999981]
[0.05484777000000007, 0.08440755000000008, 0.06432048999999998, -0.10110597399999981]
[0.029182770000000073, 0.015583550000000085, 0.13973649, -0.09402857399999981]
[0.09743077000000008, 0.0677705500000001, 0.11431148999999999, -0.08856757399999982]
[0.11061377000000008, 0.0867875500000001, 0.08120048999999999, -0.08791686399999982]
[0.10370597000000008, 0.0817798500000001, 0.07765878999999999, -0.08316706399999982]
[0.07817997000000007, 0.008154850000000102, 0.14691379, -0.08984816399999981]
[0.07539997000000007, 0.09003585000000011, 0.11557578999999998, -0.1151241639999998]
[0.06300997000000007, 0.024625850000000102, 0.16372678999999998, -0.11545620399999981]
[0.08495297000000007, 0.0701288500000001, 0.11396678999999998, -0.1427102039999998]
[0.061965970000000065, 0.0178588500000001, 0.17026679, -0.13353800399999982]
[0.05665877000000007, 0.0168862000000001, 0.16808749, -0.12311200399999982]
[0.06885677000000007, 0.0378682000000001, 0.13613349000000002, -0.12182770399999981]
[0.05874077000000007, 0.035964400000000105, 0.12707379000000002, -0.12179767399999981]
[0.057717370000000066, 0.0541534000000001, 0.10490479000000003, -0.12747017399999983]
[0.060725470000000066, 0.0558915000000001, 0.08736279000000002, -0.12257807399999983]
[0.06580677000000007, 0.0606714000000001, 0.06755879000000002, -0.11680667399999983]
[0.05865737000000007, 0.016223400000000096, 0.08979979000000002, -0.11182407399999983]
[0.05456227000000007, 0.014671300000000095, 0.09040524000000001, -0.11271214399999983]
[0.03749827000000007, 0.047759300000000095, 0.06757624000000001, -0.13469014399999985]
[0.013701270000000067, 0.0333573000000001, 0.07884924000000001, -0.13308254399999986]
[0.01932447000000007, 0.0433723000000001, 0.05612324000000001, -0.13314302999999986]
[0.06725047000000008, 0.0604433000000001, 0.05560623000000001, -0.11821702999999986]
[0.05202247000000008, -0.004345699999999897, 0.11317423000000001, -0.10948452999999986]
[0.053125670000000076, 0.015395300000000105, 0.07950623000000001, -0.11601042999999986]
[0.027706670000000076, 0.008814900000000105, 0.10634823000000002, -0.10405842999999985]
[0.053846670000000076, 0.08889590000000011, 0.06909023000000002, -0.11712742999999985]
[0.029948670000000073, 0.0810532000000001, 0.09923123000000002, -0.10950692999999985]
[0.02081687000000007, 0.060940200000000104, 0.09727473000000002, -0.10884327999999985]
