[0.03583, -0.037971, 0.034391, -0.0012501]
[0.073812, 0.06625900000000001, -0.007211000000000002, -0.0509781]
[0.0790067, 0.03362600000000001, 0.023684, -0.0608273]
[0.078993848, 0.03501230000000001, 0.0217189, -0.060745546]
[0.061671848, -0.0578157, 0.09890890000000001, -0.077913546]
[0.052730948, -0.0258247, 0.08068990000000001, -0.107365546]
[0.047822848, 0.0026273000000000026, 0.044253900000000006, -0.138369546]
[0.035453847999999996, -0.014278699999999998, 0.0694339, -0.13320594600000002]
[0.089474848, 0.016760300000000002, 0.05789790000000001, -0.11755494600000002]
[0.05627184799999999, 0.0164912, 0.08751590000000001, -0.12205074600000002]
[0.050313147999999995, 0.0413022, 0.058842900000000004, -0.131033546]
[0.026516147999999993, 0.0269002, 0.07011590000000001, -0.12942594600000001]
[0.026547348999999994, -0.0131608, 0.08807190000000001, -0.12025374600000001]
[0.039730349, 0.005856199999999999, 0.05496090000000001, -0.11960303600000001]
[0.032822549, 0.0008484999999999986, 0.051419200000000005, -0.11485323600000001]
[-0.012947450999999999, 0.03536349999999999, 0.05809110000000001, -0.12432743600000001]
[0.036301549, 0.04225409999999999, 0.06582550000000001, -0.11223243600000002]
[0.019481549000000004, -0.025866900000000012, 0.1372235, -0.09890943600000002]
[0.011696749000000005, 0.008152099999999989, 0.1023645, -0.13447843600000003]
[-0.014215250999999996, 0.007096699999999989, 0.1151625, -0.12406443600000003]
[-0.03176425099999999, 0.006289589999999989, 0.1075851, -0.12777143600000002]
[-0.02614105099999999, 0.01630458999999999, 0.08485909999999999, -0.12783192200000001]
[-0.025479760999999993, 0.04121858999999999, 0.05545809999999999, -0.134047522]
[-0.048283760999999994, 0.038155989999999994, 0.0688051, -0.120284522]
[-0.017950760999999992, 0.012227989999999994, 0.09198809999999999, -0.117254522]
[0.007138239000000008, 0.08063798999999999, 0.09169386999999998, -0.112763322]
[0.045382239000000005, 0.049556989999999995, 0.11623086999999999, -0.107560922]
[0.034827239, 0.057502889999999994, 0.09926286999999999, -0.112237722]
[0.055004239, 0.07548489, 0.06968186999999999, -0.110138722]
[0.056640039, 0.041900889999999996, 0.08343086999999999, -0.096569722]
[0.070158039, 0.052495889999999996, 0.05999386999999999, -0.092569922]
[0.065057739, 0.050136789999999994, 0.06019659999999999, -0.084936522]
[0.066600039, 0.05131618999999999, 0.043373599999999984, -0.078984122]
[0.050649039, -0.01440381000000001, 0.0910626, -0.088419522]
[0.065156039, 0.07349918999999999, 0.06873859999999998, -0.094945422]
[0.058168139, 0.03972818999999999, 0.10994959999999998, -0.079902422]
[0.048118139000000004, 0.04057649999999999, 0.10748759999999997, -0.075333622]
[0.06319513900000001, 0.06017249999999999, 0.07690359999999997, -0.076557922]
[0.04731813900000001, -0.005899500000000002, 0.13492559999999998, -0.073398622]
[0.04783792900000001, 0.0646215, 0.11438459999999998, -0.104906622]
[0.03847922900000001, 0.0136135, 0.15975159999999997, -0.091040622]
[0.02141522900000001, 0.0467015, 0.13692259999999995, -0.113018622]
[0.023854629000000013, 0.0614345, 0.12273059999999995, -0.118872122]
[0.01642222900000001, 0.0581443, 0.11845209999999995, -0.11654042199999999]
[0.02242722900000001, 0.0774713, 0.08556409999999995, -0.11978192199999999]
[0.02987002900000001, 0.03974830000000001, 0.10169509999999995, -0.10402792199999998]
[0.040507029000000014, 0.0767053, 0.060101099999999956, -0.12340692199999997]
[0.033300229000000015, 0.0091223, 0.11850909999999995, -0.11717002199999997]
[0.049204229000000016, 0.031243299999999998, 0.08732609999999995, -0.11834252199999998]
[0.05932122900000002, 0.0402653, 0.06382009999999995, -0.11407112199999998]
[0.05272042900000001, 0.0080053, 0.10187809999999994, -0.10223512199999998]
[0.040296429000000016, -0.0091697, 0.09662279999999994, -0.10433872199999998]
[0.043304529000000015, -0.007431599999999999, 0.07908079999999994, -0.09944662199999998]
[0.07822052900000001, 0.07827740000000001, 0.04875479999999994, -0.10536482199999998]
[0.054022529000000014, 0.07583560000000002, 0.05576939999999994, -0.10118392199999998]
[0.03992852900000001, 0.05458360000000002, 0.054729699999999944, -0.10310642199999998]
[0.04103172900000001, 0.07432460000000002, 0.02106169999999994, -0.10963232199999998]
[0.04621172900000001, 0.07691110000000002, 0.012653199999999941, -0.10002052199999997]
[0.026660729000000005, 0.007155100000000025, 0.06803619999999994, -0.10130942199999997]
[0.005601729000000003, 0.018970100000000024, 0.06270379999999993, -0.10958102199999997]
[0.047831729, 0.030289100000000024, 0.06992399999999993, -0.09996922199999997]
[0.034171729, 0.032130700000000026, 0.07897789999999993, -0.08416322199999997]
[0.025966429, 0.038648800000000025, 0.07409099999999993, -0.08943482199999997]
[0.011792428999999998, 0.016113800000000025, 0.08927099999999993, -0.08323672199999997]
[0.0056482289999999985, 0.015203220000000026, 0.08608919999999994, -0.07821532199999998]
[0.016200228999999997, 0.027060220000000024, 0.05967819999999994, -0.07711202199999997]
[0.007327428999999996, 0.05514022000000002, 0.028246199999999937, -0.08914702199999998]
[0.007178408999999997, 0.044897220000000015, 0.01884379999999994, -0.08265152199999998]
[-0.014031591000000003, 0.04433842000000002, 0.03833379999999994, -0.06912152199999998]
[-0.016220391000000004, 0.022300420000000015, 0.037379799999999935, -0.06347942199999998]
[-0.021527591000000006, 0.021327770000000017, 0.03520049999999993, -0.05305342199999998]
[0.018371409, -0.005738229999999983, 0.059146499999999935, -0.04442432199999998]
[0.071239409, 0.02683177000000002, 0.04542549999999994, -0.03275632199999998]
[0.033995409000000004, 0.04586877000000002, 0.04507128999999994, -0.05785132199999998]
[0.024863609000000002, 0.025755770000000018, 0.04311478999999994, -0.05718767199999998]
[-0.002000390999999997, 0.02478312000000002, 0.04928108999999994, -0.05657575199999998]
[-0.006746890999999997, -0.01871287999999998, 0.06918208999999993, -0.049058751999999976]
[0.024705109000000003, 0.03953712000000002, 0.06403818999999994, -0.06400275199999997]
[0.032147909, 0.0018141200000000232, 0.08016918999999995, -0.048248751999999964]
[0.028666909, -0.002055479999999977, 0.07538508999999995, -0.04198605199999996]
[0.014220909, 0.019382520000000025, 0.07066098999999995, -0.058663051999999966]
[-0.0033280909999999983, 0.018575410000000025, 0.06308358999999995, -0.06237005199999997]
[0.037000909, 0.020892910000000025, 0.07199178999999996, -0.05054705199999997]
[0.027393908999999998, 0.04785591000000003, 0.040765789999999955, -0.06366805199999997]
[0.0031959089999999968, 0.04541411000000003, 0.04778038999999996, -0.059487151999999974]
[-0.006920091000000003, 0.04351031000000003, 0.03872068999999996, -0.05945712199999997]
[0.023711909, 0.010195310000000027, 0.09002568999999996, -0.05119012199999998]
[0.005228909, 0.013299110000000027, 0.09776008999999997, -0.03700112199999998]
[0.058096909, 0.04586911000000003, 0.08403908999999997, -0.025333121999999975]
[0.050417509, 0.08046711000000004, 0.049634089999999964, -0.05960912199999997]
[0.055597509, 0.08305361000000004, 0.041225589999999965, -0.04999732199999997]
[0.064894509, 0.045082610000000044, 0.08765458999999996, -0.05295432199999997]
[0.036904509, 0.06476161000000004, 0.08341888999999997, -0.07407932199999998]
[0.016242509000000002, 0.06645831000000003, 0.07336488999999996, -0.08237682199999997]
[0.021836409, 0.06335431000000004, 0.07519558999999996, -0.07791152199999997]
[0.042146409, 0.08187431000000003, 0.04507458999999996, -0.07788149199999997]
[0.016727409000000002, 0.07529391000000003, 0.07191658999999996, -0.06592949199999996]
[-0.004513590999999997, 0.006324910000000031, 0.12790858999999996, -0.07064509199999996]
[0.020316409000000004, 0.07247991000000004, 0.11997988999999996, -0.07973139199999997]
[0.03622040900000001, 0.09460091000000004, 0.08879688999999996, -0.08090389199999998]
[0.02901360900000001, 0.027017910000000034, 0.14720488999999998, -0.07466699199999997]
[0.03409490900000001, 0.03179781000000004, 0.12740089, -0.06889559199999998]
[0.023153909000000007, 0.05486981000000003, 0.10216389, -0.08334859199999997]
[0.02559330900000001, 0.06960281000000003, 0.08797189, -0.08920209199999997]
[0.0064773090000000075, 0.007999810000000024, 0.14403189, -0.08434879199999996]
[0.043059309000000004, 0.06486381000000002, 0.12687489, -0.08672389199999997]
[0.038394209000000006, 0.08824681000000002, 0.09706288999999999, -0.09715489199999996]
[0.022713209000000005, 0.015800810000000026, 0.16259988999999997, -0.09843089199999996]
[0.07401520900000001, 0.10250381000000001, 0.13368688999999997, -0.11351689199999997]
[0.07565100900000002, 0.06891981000000001, 0.14743588999999999, -0.09994789199999997]
[0.05806900900000002, 0.09631681000000002, 0.12211288999999999, -0.12228789199999997]
[0.04124900900000002, 0.028195810000000016, 0.19351089, -0.10896489199999997]
[0.04191029900000002, 0.05310981000000002, 0.16410988999999998, -0.11518049199999997]
[0.03060429900000002, 0.07156781000000002, 0.15053488999999998, -0.12898649199999998]
[0.02943269900000002, 0.07761001000000002, 0.14667618999999998, -0.12957714199999998]
[0.0025686990000000215, 0.07663736000000002, 0.15284249, -0.128965222]
[0.05532469900000002, 0.07802366000000002, 0.15405628999999998, -0.11753022199999999]
[0.04452269900000002, 0.10001966000000002, 0.12819429, -0.13028922199999998]
[0.03913269900000002, 0.04834966000000002, 0.16259329, -0.12976781199999998]
[0.03017579900000002, 0.07837466000000003, 0.12652628999999999, -0.164224812]
[0.02302639900000002, 0.033926660000000025, 0.14876729, -0.159242212]
[0.00812239900000002, 0.011743660000000024, 0.16482129, -0.150302812]
[-8.290099999998073e-05, 0.018261760000000023, 0.15993439, -0.155574412]
[-0.002557400999999981, 0.037629760000000026, 0.13523739, -0.163626212]
[0.05622459900000002, 0.09703876000000003, 0.10669339000000001, -0.16971251199999998]
[0.03330659900000002, 0.024468760000000034, 0.18629039000000003, -0.16050151199999999]
[0.008222599000000021, 0.022192460000000032, 0.20117039000000003, -0.148432512]
[0.014227599000000021, 0.041519460000000036, 0.16828239000000003, -0.151674012]
[0.02326829900000002, 0.07522746000000004, 0.12329539000000003, -0.188639012]
[0.05951229900000002, 0.08983646000000003, 0.13679639000000005, -0.169355012]
[0.036708299000000014, 0.08677386000000004, 0.15014339000000004, -0.155592012]
[0.030749599000000013, 0.11158486000000004, 0.12147039000000004, -0.16457481200000001]
[0.030736747000000012, 0.11297116000000004, 0.11950529000000004, -0.16449305800000003]
[0.01403074700000001, 0.09207116000000004, 0.13534529000000003, -0.15737685800000004]
[0.05678674700000001, 0.06554316000000004, 0.15672029000000004, -0.14793315800000004]
[0.048052747000000014, 0.06521198000000004, 0.15470379000000004, -0.14235575800000003]
[0.03395874700000001, 0.043959980000000044, 0.15366409000000003, -0.14427825800000002]
[0.035501047000000015, 0.04513938000000004, 0.13684109000000003, -0.13832585800000002]
[0.026520147000000015, 0.0002773800000000354, 0.15885009000000003, -0.13325275800000003]
[0.041597147000000015, 0.019873380000000034, 0.12826609000000003, -0.13447705800000004]
[0.04722034700000002, 0.029888380000000034, 0.10554009000000003, -0.13453754400000004]
[0.04508094700000002, 0.023059680000000034, 0.10650541000000004, -0.12257254400000003]
[0.05527494700000002, 0.03408868000000004, 0.08350541000000003, -0.11663304400000003]
[0.05648754700000002, 0.03632338000000004, 0.07877271000000002, -0.10693064400000003]
[0.06353654700000003, 0.03804078000000004, 0.060913710000000024, -0.10331874400000003]
[0.05411104700000002, 0.03843385000000004, 0.05849451000000003, -0.10015944400000003]
[0.034560047000000024, -0.03132214999999996, 0.11387751000000002, -0.10144834400000002]
[0.05748804700000003, 0.05906385000000005, 0.08146051000000001, -0.11443934400000003]
[0.03240404700000003, 0.05678755000000005, 0.09634051000000002, -0.10237034400000003]
[0.023045347000000035, 0.00577955000000005, 0.14170751, -0.08850434400000003]
[0.06356934700000003, 0.06258155000000006, 0.12201451, -0.08824155400000003]
[0.06916324700000002, 0.05947755000000005, 0.12384521000000001, -0.08377625400000002]
[0.06813984700000003, 0.07766655000000006, 0.10167621000000002, -0.08944875400000002]
[0.05808984700000003, 0.07851486000000006, 0.09921421000000001, -0.08487995400000002]
[0.06152384700000003, 0.07975636000000007, 0.09634091000000002, -0.08341455400000002]
[0.05492304700000003, 0.04749636000000007, 0.13439891, -0.07157855400000002]
[0.06720204700000003, 0.08780536000000007, 0.08796391, -0.11070355400000001]
[0.04631104700000002, 0.08296316000000006, 0.10500391, -0.093268554]
[0.053717747000000024, 0.10026216000000007, 0.07304091000000001, -0.094725554]
[0.054019937000000025, 0.08975016000000008, 0.08706491000000002, -0.086988654]
[0.06621793700000003, 0.11073216000000008, 0.05511091000000003, -0.085704354]
[0.05089593700000003, 0.05976616000000008, 0.12188991000000003, -0.083954554]
[0.03672193700000003, 0.03723116000000008, 0.13706991000000004, -0.077756454]
[0.02054593700000003, 0.04815716000000008, 0.13351971000000004, -0.083752254]
[0.01357143700000003, 0.03048516000000008, 0.13007231000000005, -0.08498945399999999]
[0.01657953700000003, 0.03222326000000008, 0.11253031000000005, -0.080097354]
[0.01531053700000003, 0.02071826000000008, 0.10301651000000005, -0.07431305399999999]
[0.04736153700000002, 0.1076072600000001, 0.07398351000000004, -0.082132054]
[0.028922537000000022, 0.021132260000000083, 0.15077951000000006, -0.088800254]
[0.01812053700000002, 0.043128260000000085, 0.12491751000000006, -0.101559254]
[0.01874578700000002, 0.07242926000000008, 0.08945051000000007, -0.128296254]
[0.001196787000000022, 0.07162215000000008, 0.08187311000000007, -0.132003254]
[0.002832587000000022, 0.038038150000000076, 0.09562211000000007, -0.11843425399999999]
[-0.010581412999999977, 0.018876150000000078, 0.09406831000000007, -0.11963265399999999]
[-0.010540867999999978, 0.02516665000000008, 0.08765621000000007, -0.112050954]
[-0.02656986799999998, 0.02127635000000008, 0.10385621000000007, -0.092947954]
[0.00967413200000002, 0.03588535000000008, 0.11735721000000007, -0.073663954]
[0.01583933200000002, 0.07482935000000007, 0.07008221000000006, -0.117611954]
[0.006707532000000018, 0.05471635000000007, 0.06812571000000006, -0.116948304]
[0.02251753200000002, 0.06340725000000007, 0.044987710000000056, -0.108707104]
[0.01085053200000002, 0.04917025000000007, 0.07422871000000006, -0.102095204]
[0.05892753200000002, 0.07149725000000007, 0.07159531000000006, -0.086561204]
[0.03525253200000002, 0.06713095000000006, 0.08851531000000007, -0.090863004]
[0.012392532000000015, 0.01264695000000006, 0.14655431000000008, -0.082039904]
[0.003609132000000015, 0.04521695000000006, 0.10977631000000007, -0.114983904]
[0.05636513200000001, 0.04660325000000006, 0.11099011000000007, -0.103548904]
[0.048932732000000013, 0.04331305000000006, 0.10671161000000007, -0.10121720399999999]
[0.061012732000000014, 0.08405705000000005, 0.05907661000000007, -0.127346204]
[0.04621273200000001, -0.021186949999999954, 0.15825261000000007, -0.132372204]
[0.103439732, 0.03712505000000005, 0.13415561000000006, -0.134824904]
[0.100965232, 0.056493050000000045, 0.10945861000000007, -0.142876704]
[0.071975232, 0.05045065000000004, 0.13550361000000005, -0.12910070399999998]
[0.074414632, 0.06518365000000004, 0.12131161000000006, -0.134954204]
[0.065433732, 0.02032165000000003, 0.14332061000000004, -0.129881104]
[0.048796731999999995, 0.05320265000000003, 0.12061961000000004, -0.152105104]
[0.022510731999999995, 0.055002850000000034, 0.13857561000000004, -0.142376904]
[0.03701173199999999, 0.09106985000000004, 0.09801861000000003, -0.158342904]
[0.04077543199999999, 0.08283405000000003, 0.10587291000000003, -0.150890504]
[0.01697843199999999, 0.06843205000000004, 0.11714591000000003, -0.14928290400000002]
[0.01763972199999999, 0.09334605000000004, 0.08774491000000004, -0.155498504]
[0.048503721999999985, 0.06750105000000003, 0.11005391000000003, -0.152403804]
[0.04235952199999998, 0.06659047000000004, 0.10687211000000003, -0.147382404]
[0.023876521999999983, 0.06969427000000004, 0.11460651000000004, -0.133193404]
[0.03131932199999998, 0.031971270000000045, 0.13073751000000003, -0.11743940399999998]
[0.04621532199999998, 0.06625927000000004, 0.09042851000000003, -0.131698404]
[0.02030332199999998, 0.06520387000000004, 0.10322651000000004, -0.12128440399999998]
[0.02630832199999998, 0.07519837000000004, 0.08110051000000003, -0.12031041399999999]
[0.019400521999999983, 0.07019067000000004, 0.07755881000000003, -0.11556061399999999]
[0.005405521999999982, 0.05102867000000004, 0.10271281000000004, -0.10956941399999999]
[-0.004710478000000018, 0.04912487000000004, 0.09365311000000004, -0.10953938399999999]
[0.03742352199999998, 0.02106487000000004, 0.11376911000000003, -0.10279818399999999]
[0.02921822199999998, 0.02758297000000004, 0.10888221000000003, -0.10806978399999999]
[0.04654922199999999, 0.06712697000000004, 0.06147021000000003, -0.13308678399999999]
[0.03695692199999999, -1.0299999999574538e-06, 0.11132721000000004, -0.12979818399999998]
[0.03680790199999999, -0.010244029999999958, 0.10192481000000003, -0.12330268399999998]
[0.04700190199999999, 0.0007849700000000428, 0.07892481000000004, -0.11736318399999998]
[0.05262510199999999, 0.010799970000000044, 0.056198810000000037, -0.11742366999999998]
[0.006855101999999995, 0.04531497000000004, 0.06287071000000004, -0.12689786999999997]
[0.046902101999999994, 0.04990867000000004, 0.07649171000000005, -0.11071686999999997]
[0.03811470199999999, 0.02778767000000004, 0.07597470000000005, -0.10971701999999997]
[0.015310701999999992, 0.02472507000000004, 0.08932170000000005, -0.09595401999999997]
[0.009285301999999992, 0.04196207000000004, 0.06782070000000004, -0.10365671999999998]
[0.022468301999999992, 0.06097907000000004, 0.03470970000000004, -0.10300600999999998]
[-0.026085698000000015, 0.0019420700000000388, 0.14452770000000004, -0.11122590999999998]
[-0.000754698000000012, 0.03107707000000004, 0.13630770000000003, -0.11245020999999998]
[-0.021416698000000012, 0.03277377000000004, 0.12625370000000002, -0.12074770999999998]
[-0.023605498000000013, 0.01073577000000004, 0.1252997, -0.11510560999999998]
[0.012306501999999987, 0.04086477000000004, 0.13258850000000003, -0.10946350999999999]
[0.007398401999999986, 0.06931677000000004, 0.09615250000000003, -0.14046751]
[0.046690401999999985, 0.04016077000000004, 0.11828150000000003, -0.13738581]
[0.033030401999999986, 0.04200237000000004, 0.12733540000000002, -0.12157981]
[0.03288138199999999, 0.03175937000000004, 0.11793300000000001, -0.11508431]
[0.019467381999999988, 0.012597370000000038, 0.11637920000000002, -0.11628271]
[0.03537138199999999, 0.03471837000000004, 0.08519620000000001, -0.11745521]
[0.012567381999999992, 0.03165577000000004, 0.09854320000000001, -0.10369221]
[0.02706838199999999, 0.06772277000000004, 0.05798620000000001, -0.11965821000000001]
[0.034511181999999994, 0.029999770000000044, 0.07411720000000001, -0.10390421000000001]
[0.025877281999999995, 0.04934777000000004, 0.05038820000000001, -0.11480121000000001]
[0.020487281999999996, -0.00232222999999996, 0.08478720000000001, -0.11427980000000001]
[0.055263282, 0.08578777000000004, 0.0529012, -0.12350830000000002]
[0.004786281999999996, 0.027764770000000043, 0.1653412, -0.1274093]
[0.0077943819999999955, 0.029502870000000042, 0.1477992, -0.1225172]
[-0.0009396180000000049, 0.029171690000000042, 0.1457827, -0.11693980000000001]
[-0.001192758000000005, 0.02743339000000004, 0.1446488, -0.10474180000000001]
[0.016138241999999997, 0.06697739000000004, 0.09723679999999998, -0.1297588]
[0.017350842, 0.06921209000000005, 0.09250409999999998, -0.12005640000000001]
[0.030533842, 0.08822909000000004, 0.059393099999999976, -0.11940569000000001]
[0.074828842, 0.06472209000000004, 0.07644109999999998, -0.11031109]
[0.05063084200000001, 0.06228029000000004, 0.08345569999999998, -0.10613019]
[0.04372304200000001, 0.05727259000000004, 0.07991399999999999, -0.10138039]
[0.057241042000000006, 0.06786759000000005, 0.056476999999999986, -0.09738059]
[0.046497042, 0.004754590000000045, 0.11002699999999999, -0.08933339]
[0.061853042000000004, 0.09652659000000004, 0.08730899999999998, -0.09668689]
[0.059664242000000006, 0.07448859000000004, 0.08635499999999999, -0.09104479]
[0.063427942, 0.06625279000000003, 0.09420929999999998, -0.08359239]
[0.061698342, 0.054436790000000033, 0.10802729999999998, -0.07625639000000001]
[0.052910942, 0.03231579000000004, 0.10751028999999998, -0.07525654000000001]
[0.038736942, 0.00978079000000004, 0.12269028999999998, -0.06905844000000001]
[0.029796042000000002, 0.04177179000000004, 0.10447128999999998, -0.09851044]
[0.024488842000000004, 0.04079914000000004, 0.10229198999999999, -0.08808444]
[0.040298842, 0.04949004000000004, 0.07915398999999998, -0.07984324]
[0.045892742, 0.04638604000000004, 0.08098468999999998, -0.07537793999999999]
[0.019028742, 0.04541339000000004, 0.08715098999999998, -0.07476601999999999]
[0.039205742, 0.06339539000000004, 0.05756998999999999, -0.07266701999999998]
[0.021492742, -0.04426960999999997, 0.15975399, -0.08271001999999998]
[0.031163542, -0.005843609999999971, 0.11043999000000002, -0.12403301999999998]
[0.052437542000000004, 0.046095390000000035, 0.09246899000000001, -0.13579602]
[0.023447542000000002, 0.04005299000000004, 0.11851399000000001, -0.12202001999999999]
[0.019367142, 0.04547439000000004, 0.11324149000000001, -0.11543402]
[0.034444142, 0.06507039000000003, 0.08265749000000001, -0.11665832]
[0.017738141999999995, 0.04417039000000003, 0.09849749000000002, -0.10954211999999999]
[0.065815142, 0.06649739000000003, 0.09586409000000003, -0.09400812]
[0.04475614199999999, 0.07831239000000004, 0.09053169000000003, -0.10227972]
[0.03873074199999999, 0.09554939000000004, 0.06903069000000002, -0.10998242000000001]
[0.07941074199999998, 0.06618639000000004, 0.09102269000000002, -0.10497402000000002]
[0.07944194299999997, 0.02612539000000004, 0.10897869000000002, -0.09580182000000001]
[0.07167314299999997, 0.02742899000000004, 0.10866732000000001, -0.09934072000000001]
[0.06737914299999996, 0.02595969000000004, 0.10910997000000001, -0.10090122000000001]
[0.06523974299999996, 0.01913099000000004, 0.11007529000000002, -0.08893622000000001]
[0.04765774299999996, 0.04652799000000004, 0.08475229000000002, -0.11127622000000001]
[0.06796774299999997, 0.06504799000000004, 0.05463129000000002, -0.11124619000000001]
[0.050418742999999974, 0.06424088000000004, 0.04705389000000002, -0.11495319000000001]
[0.03438974299999997, 0.06035058000000004, 0.06325389000000002, -0.09585019]
[0.026241842999999973, 0.002969580000000041, 0.10717289000000002, -0.09263919]
[0.04916984299999998, 0.09335558000000005, 0.07475589000000002, -0.10563019]
[0.05141304299999998, 0.08814088000000005, 0.07071729000000002, -0.09361319]
[0.021530042999999974, 0.09126538000000005, 0.07522139000000001, -0.09292368]
[0.007535042999999974, 0.07210338000000005, 0.10037539000000001, -0.08693247999999999]
[0.022431042999999977, 0.10639138000000005, 0.06006639000000001, -0.10119147999999999]
[-0.013580957000000025, 0.04100238000000005, 0.16530039000000002, -0.10608817999999999]
[0.020459042999999975, 0.12826338000000004, 0.13538539000000002, -0.11181237999999999]
[0.004887042999999976, 0.02945538000000003, 0.21647339000000004, -0.12261837999999999]
[-0.0051629570000000236, 0.030303690000000032, 0.21401139000000005, -0.11804957999999999]
[0.03780604299999998, 0.10647369000000004, 0.19013739000000004, -0.12766597999999998]
[0.03934834299999998, 0.10765309000000003, 0.17331439000000004, -0.12171357999999999]
[0.03842640299999998, 0.11158459000000004, 0.17002979000000004, -0.12309297999999999]
[0.02087740299999998, 0.11077748000000004, 0.16245239000000003, -0.12679997999999998]
[0.007217402999999976, 0.11261908000000004, 0.17150629000000003, -0.11099397999999998]
[0.023027402999999978, 0.12130998000000004, 0.14836829000000004, -0.10275277999999997]
[0.013173402999999978, 0.05469998000000004, 0.20661329000000003, -0.09729177999999997]
[0.013270015999999978, 0.09031198000000004, 0.16254329000000003, -0.14139477999999997]
[0.0024680159999999774, 0.11230798000000004, 0.13668129000000004, -0.15415377999999996]
[-0.015577984000000022, 0.04416698000000005, 0.20370029000000006, -0.14247277999999997]
[0.02373201599999998, 0.06270798000000005, 0.20346604000000007, -0.13015877999999997]
[0.02891201599999998, 0.06529448000000006, 0.19505754000000008, -0.12054697999999997]
[0.015498015999999983, 0.04613248000000006, 0.1935037400000001, -0.12174537999999997]
[0.016710615999999984, 0.04836718000000006, 0.18877104000000008, -0.11204297999999997]
[0.013229615999999984, 0.04449758000000006, 0.18398694000000007, -0.10578027999999998]
[0.016562115999999984, 0.07760558000000006, 0.13890594000000006, -0.14590027999999997]
[-0.001920884000000015, 0.08070938000000007, 0.14664034000000006, -0.13171127999999996]
[-0.006001284000000016, 0.08613078000000007, 0.14136784000000005, -0.12512527999999995]
[-0.021852284000000017, 0.06456878000000008, 0.15844984000000006, -0.11610827999999995]
[-0.022875684000000018, 0.08275778000000007, 0.13628084000000007, -0.12178077999999995]
[0.017804315999999976, 0.05339478000000007, 0.15827284000000008, -0.11677237999999995]
[0.023877415999999978, 0.09293878000000008, 0.11055284000000007, -0.16162537999999996]
[0.0022034159999999754, 0.09418028000000009, 0.10008784000000007, -0.17024617999999997]
[0.042532415999999976, 0.09649778000000009, 0.10899604000000007, -0.15842317999999997]
[0.03554451599999998, 0.06272678000000009, 0.15020704000000007, -0.14338017999999997]
[0.028570015999999976, 0.04505478000000009, 0.14675964000000008, -0.14461737999999996]
[0.040768015999999976, 0.06603678000000009, 0.11480564000000008, -0.14333307999999997]
[0.014482015999999976, 0.06783698000000009, 0.13276164000000007, -0.13360487999999998]
[0.07540101599999997, 0.09750998000000008, 0.11949464000000007, -0.11905387999999997]
[0.07326161599999997, 0.09068128000000009, 0.12045996000000007, -0.10708887999999997]
[0.06716411599999997, 0.050661280000000086, 0.13893096000000008, -0.10107187999999998]
[0.05973171599999997, 0.047371080000000086, 0.13465246000000008, -0.09874017999999997]
[0.04730771599999997, 0.030196080000000087, 0.1293971600000001, -0.10084377999999997]
[0.022223715999999973, 0.02791978000000009, 0.1442771600000001, -0.08877477999999997]
[0.013589815999999973, 0.04726778000000009, 0.1205481600000001, -0.09967177999999997]
[0.013336675999999973, 0.045529480000000094, 0.1194142600000001, -0.08747377999999997]
[0.013187655999999973, 0.03528648000000009, 0.1100118600000001, -0.08097827999999997]
[-0.0043943440000000274, 0.0626834800000001, 0.0846888600000001, -0.10331827999999997]
[0.029361655999999972, 0.02173248000000009, 0.1283588600000001, -0.09262027999999997]
[0.07537565599999997, 0.07799648000000009, 0.1071238600000001, -0.09068937999999997]
[0.08556965599999997, 0.08902548000000009, 0.0841238600000001, -0.08474987999999997]
[0.06988865599999997, 0.01657948000000009, 0.14966086000000012, -0.08602587999999997]
[0.09792165599999997, 0.10744148000000009, 0.11599286000000011, -0.09624987999999997]
[0.09189625599999997, 0.12467848000000009, 0.09449186000000011, -0.10395257999999998]
[0.08412745599999996, 0.12598208000000008, 0.0941804900000001, -0.10749147999999997]
[0.07534005599999996, 0.10386108000000008, 0.0936634800000001, -0.10649162999999998]
[0.06055905599999996, 0.10528878000000008, 0.08204148000000011, -0.11134952999999997]
[0.04308005599999996, 0.04705878000000008, 0.1407404800000001, -0.09922952999999997]
[0.033539755999999955, 0.06688278000000009, 0.11757748000000011, -0.11118652999999996]
[0.03916295599999996, 0.07689778000000008, 0.0948514800000001, -0.11124701599999996]
[0.015365955999999955, 0.062495780000000084, 0.1061244800000001, -0.10963941599999996]
[0.006007255999999956, 0.011487780000000086, 0.1514914800000001, -0.09577341599999996]
[0.0013421559999999555, 0.03487078000000009, 0.12167948000000009, -0.10620441599999995]
[0.052471155999999956, 0.029883680000000086, 0.12796578000000008, -0.09501541599999995]
[0.04817715599999996, 0.028414380000000086, 0.12840843000000007, -0.09657591599999996]
[0.05522615599999996, 0.030131780000000087, 0.11054943000000007, -0.09296401599999995]
[0.054304215999999954, 0.034063280000000085, 0.10726483000000007, -0.09434341599999996]
[0.03759821599999995, 0.013163280000000086, 0.12310483000000008, -0.08722721599999995]
[0.04322141599999995, 0.023178280000000086, 0.10037883000000009, -0.08728770199999995]
[0.04250638599999995, 0.06059028000000009, 0.05496383000000008, -0.12981370199999995]
[0.025686385999999953, -0.007530719999999914, 0.1263618300000001, -0.11649070199999995]
[0.045825385999999954, 0.05388528000000009, 0.13015473000000008, -0.11079690199999995]
[0.028276385999999955, 0.05307817000000009, 0.12257733000000008, -0.11450390199999995]
[0.021301885999999954, 0.03540617000000009, 0.11912993000000008, -0.11574110199999994]
[0.020278485999999953, 0.053595170000000095, 0.09696093000000008, -0.12141360199999994]
[0.016198085999999952, 0.059016570000000095, 0.09168843000000008, -0.11482760199999995]
[0.026392085999999954, 0.0700455700000001, 0.06868843000000008, -0.10888810199999994]
[0.03239708599999996, 0.0800400700000001, 0.04656243000000007, -0.10791411199999995]
[0.07883608599999996, 0.0463110700000001, 0.07253843000000007, -0.10238841199999996]
[0.07664728599999995, 0.024273070000000098, 0.07158443000000007, -0.09674631199999996]
[0.07054978599999995, -0.015746929999999902, 0.09005543000000008, -0.09072931199999996]
[0.10532578599999995, 0.07236307000000011, 0.05816943000000007, -0.09995781199999997]
[0.07960178599999995, 0.06280287000000011, 0.08524243000000006, -0.10162171199999996]
[0.07269398599999995, 0.057795170000000104, 0.08170073000000007, -0.09687191199999996]
[0.06611728599999994, 0.029777170000000103, 0.11881573000000006, -0.08689801199999997]
[0.08061828599999994, 0.0658441700000001, 0.07825873000000005, -0.10286401199999998]
[0.07645378599999994, 0.06909287000000011, 0.07489703000000006, -0.10646761199999998]
[0.05504878599999994, 0.06741667000000011, 0.08810703000000006, -0.10855821199999997]
[0.05508933099999994, 0.07370717000000011, 0.08169493000000005, -0.10097651199999998]
[0.03690233099999994, -0.01665882999999989, 0.17185693000000005, -0.10220081199999997]
[0.05280633099999994, 0.00546217000000011, 0.14067393000000006, -0.10337331199999997]
[0.055539430999999945, 0.05423517000000011, 0.09147993000000004, -0.16157131199999997]
[0.05193693099999994, 0.009745170000000108, 0.11254693000000004, -0.15214051199999998]
[0.043202930999999944, 0.009413990000000108, 0.11053043000000004, -0.14656311199999997]
[0.03264793099999994, 0.017359890000000107, 0.09356243000000004, -0.15123991199999998]
[0.08057393099999995, 0.0344308900000001, 0.09304542000000005, -0.13631391199999998]
[0.046969930999999944, 0.031161290000000102, 0.11436942000000005, -0.130296912]
[0.044830530999999944, 0.024332590000000102, 0.11533474000000006, -0.11833191199999998]
[0.058013530999999945, 0.043349590000000104, 0.08222374000000006, -0.11768120199999998]
[0.07153153099999994, 0.053944590000000105, 0.05878674000000006, -0.11368140199999999]
[0.058117530999999945, 0.034782590000000106, 0.05723294000000006, -0.11487980199999999]
[0.058104678999999944, 0.036168890000000106, 0.05526784000000006, -0.11479804799999999]
[0.04867917899999995, 0.03656196000000011, 0.05284864000000006, -0.11163874799999998]
[0.025692178999999944, -0.015708039999999895, 0.10914864000000006, -0.10246654799999998]
[0.05973217899999994, 0.07155296000000011, 0.07923364000000006, -0.10819074799999998]
[0.03420617899999994, -0.002072039999999886, 0.14848864000000006, -0.11487184799999997]
[0.08541917899999994, 0.08349296000000012, 0.11457164000000006, -0.130345848]
[0.07582687899999994, 0.016364960000000123, 0.16442864000000007, -0.12705724799999998]
[0.10408787899999994, 0.11037196000000013, 0.13139464000000006, -0.13756624799999997]
[0.09423387899999994, 0.04376196000000013, 0.18963964000000005, -0.13210524799999998]
[0.08544647899999994, 0.02164096000000013, 0.18912263000000004, -0.13110539799999998]
[0.03967647899999994, 0.05615596000000013, 0.19579453000000005, -0.14057959799999997]
[0.04088907899999994, 0.05839066000000013, 0.19106183000000004, -0.13087719799999997]
[0.011006078999999936, 0.06151516000000013, 0.19556593000000005, -0.13018768799999997]
[0.012174678999999937, 0.09886516000000013, 0.15118693000000005, -0.17392868799999997]
[0.017255978999999935, 0.10364506000000014, 0.13138293000000006, -0.16815728799999996]
[0.05715497899999994, 0.07657906000000014, 0.15532893000000006, -0.15952818799999996]
[0.06058897899999994, 0.07782056000000015, 0.15245563000000006, -0.15806278799999995]
[0.06803177899999995, 0.04009756000000015, 0.16858663000000007, -0.14230878799999996]
[0.060232278999999944, 0.07241956000000016, 0.13576663000000005, -0.17331278799999997]
[0.060263479999999946, 0.03235856000000016, 0.15372263000000005, -0.16414058799999998]
[0.058994479999999946, 0.02085356000000016, 0.14420883000000007, -0.15835628799999998]
[0.052969079999999946, 0.03809056000000016, 0.12270783000000006, -0.166058988]
[0.054990679999999945, 0.05727256000000017, 0.08987983000000005, -0.172235788]
[0.06017067999999995, 0.059859060000000165, 0.08147133000000005, -0.162623988]
[0.04491867999999995, -0.002674939999999841, 0.13499533000000005, -0.156632788]
[0.046077879999999946, 0.029544060000000164, 0.10069333000000005, -0.185089788]
[0.019213879999999947, 0.028571410000000165, 0.10685963000000005, -0.18447786800000002]
[0.02940787999999995, 0.03960041000000017, 0.08385963000000005, -0.178538368]
[0.03062047999999995, 0.04183511000000017, 0.07912693000000004, -0.168835968]
[0.02587397999999995, -0.0016608899999998317, 0.09902793000000004, -0.161318968]
[0.00832497999999995, -0.002467999999999832, 0.09145053000000004, -0.165025968]
[-0.0005478200000000495, 0.025612000000000166, 0.06001853000000004, -0.17706096799999999]
[-0.01464182000000005, 0.004360000000000166, 0.058978830000000045, -0.17898346799999998]
[-0.00901862000000005, 0.014375000000000167, 0.03625283000000004, -0.17904395399999998]
[-0.00677542000000005, 0.009160300000000166, 0.03221423000000004, -0.16702695399999998]
[0.013534579999999952, 0.027680300000000168, 0.002093230000000036, -0.166996924]
[0.009695779999999952, 0.01720930000000017, 0.08260723000000003, -0.16204022399999998]
[0.056809779999999956, 0.03796430000000017, 0.07990523000000004, -0.14966122399999998]
[0.04849767999999996, 0.038357370000000175, 0.08044213000000004, -0.15197172399999997]
[0.04489517999999996, -0.0061326299999998266, 0.10150913000000004, -0.14254092399999999]
[0.021098179999999956, -0.020534629999999825, 0.11278213000000005, -0.140933324]
[0.05717517999999995, 0.04804137000000017, 0.10116013000000006, -0.138110224]
[0.034371179999999946, 0.044978770000000175, 0.11450713000000005, -0.124347224]
[0.03813487999999995, 0.03674297000000017, 0.12236143000000005, -0.11689482400000001]
[0.04156887999999995, 0.03798447000000017, 0.11948813000000005, -0.115429424]
[0.025717879999999946, 0.01642247000000017, 0.13657013000000007, -0.106412424]
[0.08449987999999994, 0.07583147000000018, 0.10802613000000007, -0.11249872400000001]
[0.054234879999999944, 0.07521059000000017, 0.11488653000000007, -0.11305058400000001]
[0.054896169999999946, 0.10012459000000018, 0.08548553000000006, -0.11926618400000001]
[0.04250616999999994, 0.03471459000000017, 0.13363653000000006, -0.11959822400000002]
[0.02402316999999994, 0.03781839000000017, 0.14137093000000006, -0.10540922400000002]
[0.01698856999999994, 0.06738839000000016, 0.10542393000000005, -0.13686622400000004]
[0.00456456999999994, 0.05021339000000016, 0.10016863000000005, -0.13896982400000005]
[-0.008849430000000059, 0.031051390000000165, 0.09861483000000006, -0.14016822400000004]
[-0.009771370000000059, 0.03498289000000016, 0.09533023000000006, -0.14154762400000004]
[-0.01667917000000006, 0.029975190000000162, 0.09178853000000006, -0.13679782400000004]
[-0.02016017000000006, 0.02610559000000016, 0.08700443000000006, -0.13053512400000003]
[0.04075882999999994, 0.055778590000000156, 0.07373743000000006, -0.11598412400000002]
[0.03377092999999994, 0.022007590000000153, 0.11494843000000007, -0.10094112400000002]
[0.06607392999999995, 0.10039159000000014, 0.07960043000000007, -0.11309212400000002]
[0.05189992999999995, 0.07785659000000014, 0.09478043000000007, -0.10689402400000002]
[0.05194047499999995, 0.08414709000000015, 0.08836833000000006, -0.09931232400000002]
[0.03375347499999995, -0.006218909999999855, 0.17853033000000007, -0.10053662400000002]
[0.013224474999999947, 0.03216609000000014, 0.17057593000000007, -0.11267462400000001]
[0.008316374999999947, 0.06061809000000014, 0.13413993000000007, -0.143678624]
[0.023393374999999945, 0.08021409000000014, 0.10355593000000007, -0.14490292400000002]
[-0.005596625000000056, 0.07417169000000014, 0.12960093000000006, -0.131126924]
[0.04075537499999995, 0.044084690000000135, 0.15637393000000005, -0.119006924]
[0.05755437499999995, 0.08615269000000014, 0.11097593000000006, -0.142937924]
[0.04073437499999995, 0.018031690000000142, 0.18237393000000007, -0.129614924]
[0.020072374999999948, 0.01972839000000014, 0.17231993000000007, -0.13791242399999998]
[0.020059522999999947, 0.02111469000000014, 0.17035483000000007, -0.13783067]
[0.018887922999999945, 0.027156890000000142, 0.16649613000000008, -0.13842132]
[0.04692092299999995, 0.11801889000000014, 0.13282813000000007, -0.14864532]
[0.013316922999999946, 0.11474929000000014, 0.15415213000000008, -0.14262832]
[-0.00034307700000005617, 0.11659089000000014, 0.16320603000000009, -0.12682232]
[-0.010898077000000058, 0.12453679000000015, 0.14623803000000007, -0.13149912]
[-0.029680077000000058, 0.05867179000000014, 0.19472403000000008, -0.13171478]
[0.019568922999999943, 0.06556239000000014, 0.20245843000000008, -0.11961978000000001]
[0.031847922999999945, 0.10587139000000013, 0.15602343000000007, -0.15874478]
[0.027182822999999946, 0.12925439000000014, 0.12621143000000007, -0.16917578]
[0.07147782299999994, 0.10574739000000014, 0.14325943000000008, -0.16008118]
[0.06404542299999993, 0.10245719000000014, 0.13898093000000009, -0.15774948]
[0.04118542299999993, 0.04797319000000014, 0.1970199300000001, -0.14892638]
[0.04735062299999993, 0.08691719000000014, 0.14974493000000008, -0.19287438]
[0.021710622999999932, 0.06986619000000015, 0.1647709300000001, -0.18959868000000002]
[0.026791922999999933, 0.07464609000000015, 0.1449669300000001, -0.18382728]
[0.010762922999999931, 0.07075579000000015, 0.1611669300000001, -0.16472428]
[-0.007720077000000068, 0.07385959000000016, 0.1689013300000001, -0.15053528]
[-0.0002772770000000679, 0.036136590000000156, 0.1850323300000001, -0.13478128]
[0.051498722999999934, 0.11845259000000016, 0.15252133000000012, -0.15047528]
[0.044510822999999936, 0.08468159000000017, 0.19373233000000012, -0.13543228]
[0.05470482299999994, 0.09571059000000016, 0.17073233000000013, -0.12949277999999997]
[0.04712552299999994, 0.12105959000000016, 0.14026833000000014, -0.14212177999999998]
[0.05313052299999994, 0.14038659000000017, 0.10738033000000013, -0.14536327999999998]
[0.031920522999999944, 0.13982779000000017, 0.12687033000000014, -0.13183328]
[0.013481522999999943, 0.053352790000000164, 0.20366633000000015, -0.13850148]
[0.013578135999999944, 0.08896479000000015, 0.15959633000000015, -0.18260448]
[0.007552735999999944, 0.10620179000000016, 0.13809533000000015, -0.19030718000000002]
[0.002245535999999944, 0.10522914000000015, 0.13591603000000016, -0.17988118000000003]
[-0.0043552640000000566, 0.07296914000000015, 0.17397403000000017, -0.16804518000000002]
[0.036164735999999933, 0.07131364000000015, 0.17851233000000016, -0.16292038]
[0.09018573599999993, 0.10235264000000015, 0.16697633000000017, -0.14726938]
[0.08198043599999993, 0.10887074000000015, 0.16208943000000017, -0.15254098]
[0.07500593599999994, 0.09119874000000014, 0.15864203000000018, -0.15377818]
[0.07025943599999994, 0.04770274000000014, 0.17854303000000019, -0.14626118]
[0.06112763599999994, 0.02758974000000014, 0.17658653000000019, -0.14559753]
[0.07464563599999993, 0.03818474000000014, 0.15314953000000017, -0.14159773]
[0.06047163599999993, 0.01564974000000014, 0.16832953000000017, -0.13539963]
[0.05954969599999993, 0.019581240000000142, 0.16504493000000017, -0.13677903]
[0.06017494599999993, 0.048882240000000146, 0.12957793000000017, -0.16351603]
[0.05844534599999993, 0.037066240000000146, 0.14339593000000017, -0.15618003]
[0.04832934599999993, 0.03516244000000015, 0.13433623000000017, -0.15615]
[0.047060345999999934, 0.023657440000000148, 0.12482243000000016, -0.15036570000000002]
[0.031209345999999933, 0.002095440000000146, 0.14190443000000016, -0.14134870000000002]
[0.08166134599999994, 0.04105944000000014, 0.12760043000000015, -0.13271960000000002]
[0.07451194599999994, -0.00338855999999986, 0.14984143000000016, -0.12773700000000002]
[0.06041794599999994, -0.02464055999999986, 0.14880173000000016, -0.1296595]
[0.10086394599999994, 0.08710044000000014, 0.10521973000000015, -0.1770605]
[0.07980494599999993, 0.09891544000000015, 0.09988733000000015, -0.1853321]
[0.06500494599999992, -0.006328559999999858, 0.19906333000000015, -0.1903581]
[0.06843894599999993, -0.005087059999999859, 0.19619003000000015, -0.1888927]
[0.13668694599999992, 0.047099940000000146, 0.17076503000000015, -0.1834317]
[0.09863394599999992, 0.07137294000000015, 0.17757403000000016, -0.1943027]
[0.09120154599999991, 0.06808274000000014, 0.17329553000000017, -0.191971]
[0.0871064459999999, 0.06653064000000014, 0.17390098000000018, -0.19285907]
[0.06955744599999991, 0.06572353000000014, 0.16632358000000017, -0.19656606999999998]
[0.04269344599999991, 0.06475088000000014, 0.17248988000000018, -0.19595415]
[0.03326794599999991, 0.06514395000000013, 0.17007068000000017, -0.19279485]
[0.049077945999999914, 0.07383485000000013, 0.14693268000000018, -0.18455364999999999]
[0.045596945999999916, 0.06996525000000013, 0.14214858000000016, -0.17829094999999998]
[0.048605045999999916, 0.07170335000000014, 0.12460658000000016, -0.17339884999999997]
[0.024407045999999915, 0.06926155000000014, 0.13162118000000017, -0.16921794999999998]
[0.07502404599999991, 0.06568165000000015, 0.13609098000000017, -0.15923115]
[0.08243074599999992, 0.08298065000000016, 0.10412798000000018, -0.16068814999999997]
[0.07835034599999992, 0.08840205000000015, 0.09885548000000018, -0.15410214999999997]
[0.07839089099999992, 0.09469255000000015, 0.09244338000000017, -0.14652044999999997]
[0.06348689099999992, 0.07250955000000014, 0.10849738000000017, -0.13758104999999998]
[0.05485299099999992, 0.09185755000000015, 0.08476838000000017, -0.14847804999999997]
[0.033961990999999914, 0.08701535000000014, 0.10180838000000017, -0.13104304999999997]
[0.03914199099999992, 0.08960185000000015, 0.09339988000000017, -0.12143124999999996]
[0.01680199099999992, 0.019287850000000148, 0.16833588000000016, -0.11529784999999997]
[0.057325990999999916, 0.07608985000000015, 0.14864288000000014, -0.11503505999999997]
[0.05136729099999992, 0.10090085000000015, 0.11996988000000014, -0.12401785999999997]
[0.03737229099999992, 0.08173885000000015, 0.14512388000000015, -0.11802665999999996]
[0.013174290999999918, 0.07929705000000016, 0.15213848000000016, -0.11384575999999996]
[0.008509190999999918, 0.10268005000000016, 0.12232648000000015, -0.12427675999999996]
[-0.007341809000000083, 0.08111805000000016, 0.13940848000000017, -0.11525975999999996]
[0.003210190999999916, 0.09297505000000017, 0.11299748000000018, -0.11415645999999996]
[0.04750519099999992, 0.06946805000000017, 0.13004548000000019, -0.10506185999999995]
[0.03992589099999992, 0.09481705000000017, 0.09958148000000018, -0.11769085999999995]
[0.044208890999999924, 0.08531895000000017, 0.08885048000000018, -0.11447985999999995]
[0.047216990999999923, 0.08705705000000018, 0.07130848000000017, -0.10958775999999995]
[0.02554299099999992, 0.08829855000000018, 0.06084348000000017, -0.11820855999999995]
[-0.003955009000000082, 0.005568550000000186, 0.1634894800000002, -0.10657955999999995]
[-0.006429509000000082, 0.024936550000000186, 0.1387924800000002, -0.11463135999999995]
[-0.016545509000000083, 0.023032750000000185, 0.1297327800000002, -0.11460132999999995]
[0.03337749099999992, 0.10168575000000019, 0.10621778000000018, -0.12179972999999994]
[0.010517490999999917, 0.04720175000000018, 0.16425678000000019, -0.11297662999999994]
[0.022715490999999918, 0.06818375000000018, 0.13230278000000018, -0.11169232999999994]
[0.012160490999999916, 0.07612965000000019, 0.11533478000000018, -0.11636912999999993]
[0.006770490999999915, 0.024459650000000187, 0.14973378000000018, -0.11584771999999993]
[0.035031490999999915, 0.1184666500000002, 0.11669978000000017, -0.12635671999999992]
[0.019811490999999914, 0.0520836500000002, 0.17419078000000018, -0.1274258199999999]
[0.03488849099999991, 0.0716796500000002, 0.14360678000000018, -0.12865011999999992]
[0.03652429099999991, 0.0380956500000002, 0.1573557800000002, -0.11508111999999993]
[0.01894229099999991, 0.06549265000000021, 0.13203278000000018, -0.13742111999999992]
[0.01291689099999991, 0.08272965000000021, 0.11053178000000018, -0.14512381999999993]
[0.053596890999999904, 0.05336665000000021, 0.13252378000000017, -0.14011541999999994]
[0.0246068909999999, 0.047324250000000206, 0.1585687800000002, -0.12633941999999992]
[0.0449168909999999, 0.06584425000000022, 0.12844778000000018, -0.12630938999999994]
[0.0288878909999999, 0.061953950000000216, 0.14464778000000017, -0.10720638999999993]
[0.021980090999999903, 0.05694625000000021, 0.14110608000000016, -0.10245658999999993]
[0.016672890999999905, 0.05597360000000021, 0.13892678000000017, -0.09203058999999993]
[0.013022290999999905, 0.08490160000000022, 0.10246578000000017, -0.12263358999999993]
[-0.001881709000000096, 0.06271860000000021, 0.11851978000000017, -0.11369418999999993]
[0.005167290999999904, 0.0644360000000002, 0.10066078000000017, -0.11008228999999993]
[0.020977290999999905, 0.0731269000000002, 0.07752278000000017, -0.10184108999999993]
[0.028383990999999907, 0.0904259000000002, 0.04555978000000017, -0.10329808999999993]
[0.00011699099999990317, 1.8900000000196537e-05, 0.13625378000000016, -0.11312138999999993]
[0.011927990999999903, 0.0838659000000002, 0.11568678000000016, -0.12215588999999993]
[0.011959191999999903, 0.0438049000000002, 0.13364278000000016, -0.11298368999999993]
[0.0339021919999999, 0.0893079000000002, 0.08388278000000016, -0.14023768999999991]
[0.027325491999999903, 0.0612899000000002, 0.12099778000000017, -0.1302637899999999]
[0.0237229919999999, 0.0167999000000002, 0.14206478000000017, -0.1208329899999999]
[0.0830969919999999, 0.0784639000000002, 0.11615978000000017, -0.1244882899999999]
[0.0768285919999999, 0.0154539000000002, 0.16400278000000018, -0.1134282899999999]
[0.0779877919999999, 0.047672900000000205, 0.12970078000000018, -0.14188528999999991]
[0.0690068919999999, 0.0028109000000001994, 0.15170978000000018, -0.13681218999999992]
[0.05194289199999991, 0.0358989000000002, 0.1288807800000002, -0.15879018999999991]
[0.05794789199999991, 0.0552259000000002, 0.0959927800000002, -0.16203168999999992]
[0.06312789199999991, 0.0578124000000002, 0.0875842800000002, -0.15241988999999992]
[0.048346891999999905, 0.0592401000000002, 0.0759622800000002, -0.15727778999999992]
[0.022681891999999905, -0.009583899999999798, 0.1513782800000002, -0.1502003899999999]
[0.022428751999999906, -0.011322199999999798, 0.1502443800000002, -0.13800238999999992]
[0.018947751999999905, -0.015191799999999799, 0.1454602800000002, -0.1317396899999999]
[0.0551917519999999, -0.0005827999999997984, 0.1589612800000002, -0.11245568999999991]
[0.0477593519999999, -0.0038729999999997985, 0.15468278000000021, -0.11012398999999991]
[0.0416151519999999, -0.004783579999999799, 0.1515009800000002, -0.10510258999999991]
[0.0338463519999999, -0.0034799799999997985, 0.1511896100000002, -0.10864148999999991]
[0.06378635199999991, 0.0685310200000002, 0.1390366100000002, -0.1054304899999999]
[0.0409823519999999, 0.06546842000000021, 0.1523836100000002, -0.09166748999999991]
[0.0314420519999999, 0.0852924200000002, 0.1292206100000002, -0.1036244899999999]
[0.0297124519999999, 0.07347642000000021, 0.1430386100000002, -0.09628848999999991]
[0.0285408519999999, 0.0795186200000002, 0.1391799100000002, -0.0968791399999999]
[0.0215663519999999, 0.061846620000000206, 0.13573251000000022, -0.0981163399999999]
[0.0128323519999999, 0.061515440000000206, 0.13371601000000022, -0.0925389399999999]
[0.011808951999999899, 0.07970444000000021, 0.11154701000000022, -0.0982114399999999]
[0.0249919519999999, 0.09872144000000022, 0.07843601000000022, -0.0975607299999999]
[0.0671259519999999, 0.07066144000000021, 0.09855201000000022, -0.0908195299999999]
[0.0609817519999999, 0.06975086000000022, 0.09537021000000022, -0.0857981299999999]
[0.0514414519999999, 0.08957486000000023, 0.07220721000000022, -0.0977551299999999]
[0.0285814519999999, 0.035090860000000224, 0.13024621000000022, -0.0889320299999999]
[-0.0013015480000001037, 0.038215360000000226, 0.13475031000000023, -0.0882425199999999]
[-0.002570548000000104, 0.026710360000000224, 0.12523651000000025, -0.08245821999999989]
[-0.013876548000000103, 0.04516836000000023, 0.11166151000000024, -0.09626421999999989]
[0.0365754519999999, 0.08413236000000023, 0.09735751000000024, -0.08763511999999989]
[0.025831451999999897, 0.021019360000000223, 0.15090751000000024, -0.07958791999999988]
[0.033238151999999896, 0.038318360000000225, 0.11894451000000025, -0.08104491999999988]
[0.014755151999999896, 0.04142216000000022, 0.12667891000000026, -0.06685591999999987]
[0.06762315199999991, 0.07399216000000022, 0.11295791000000026, -0.055187919999999877]
[0.06223315199999991, 0.022322160000000223, 0.14735691000000026, -0.05466650999999988]
[0.06004435199999991, 0.0002841600000002206, 0.14640291000000025, -0.04902440999999988]
[0.0052363519999999095, 0.08210316000000023, 0.14918471000000025, -0.09934740999999989]
[0.05636535199999991, 0.07711606000000024, 0.15547101000000024, -0.08815840999999988]
[0.062370351999999914, 0.09644306000000023, 0.12258301000000024, -0.09139990999999988]
[0.058289951999999916, 0.10186446000000024, 0.11731051000000024, -0.08481390999999988]
[0.03873895199999991, 0.03210846000000024, 0.17269351000000024, -0.08610280999999988]
[0.03995155199999991, 0.03434316000000024, 0.16796081000000024, -0.07640040999999988]
[0.0655565519999999, 0.12702616000000025, 0.13204781000000024, -0.08996040999999988]
[0.0715615519999999, 0.13702066000000024, 0.10992181000000023, -0.08898641999999989]
[0.046142551999999906, 0.13044026000000025, 0.13676381000000024, -0.07703441999999988]
[0.029436551999999904, 0.10954026000000025, 0.15260381000000023, -0.06991821999999988]
[0.020011051999999904, 0.10993333000000025, 0.15018461000000022, -0.06675891999999987]
[0.005837051999999903, 0.08739833000000025, 0.16536461000000022, -0.060560819999999876]
[0.007472851999999903, 0.05381433000000024, 0.17911361000000023, -0.04699181999999988]
[0.004603251999999903, 0.08559833000000025, 0.14334661000000024, -0.07888781999999989]
[0.019499251999999904, 0.11988633000000025, 0.10303761000000024, -0.09314681999999988]
[0.034576251999999905, 0.13948233000000024, 0.07245361000000024, -0.09437111999999988]
[-0.002926748000000097, 0.004896330000000226, 0.24838561000000026, -0.12214211999999988]
[0.023635251999999905, 0.11194033000000023, 0.21530061000000025, -0.16290911999999988]
[0.023486231999999906, 0.10169733000000022, 0.20589821000000025, -0.1564136199999999]
[0.023473379999999905, 0.10308363000000023, 0.20393311000000025, -0.1563318659999999]
[0.018808279999999906, 0.12646663000000022, 0.17412111000000025, -0.1667628659999999]
[0.003904279999999906, 0.10428363000000021, 0.19017511000000026, -0.1578234659999999]
[0.003944824999999906, 0.11057413000000021, 0.18376301000000025, -0.15024176599999992]
[0.009026124999999906, 0.11535403000000022, 0.16395901000000027, -0.1444703659999999]
[0.009687414999999906, 0.1402680300000002, 0.13455801000000026, -0.1506859659999999]
[-0.004307585000000095, 0.12110603000000021, 0.15971201000000027, -0.1446947659999999]
[-0.006037185000000094, 0.1092900300000002, 0.17353001000000026, -0.13735876599999988]
[-0.002603185000000094, 0.11053153000000021, 0.17065671000000027, -0.13589336599999988]
[-0.020152185000000093, 0.10972442000000021, 0.16307931000000025, -0.13960036599999986]
[0.026347814999999913, 0.06142742000000021, 0.19763231000000026, -0.14211776599999987]
[0.024208414999999914, 0.05459872000000021, 0.19859763000000025, -0.13015276599999986]
[0.026451614999999915, 0.04938402000000021, 0.19455903000000024, -0.11813576599999986]
[0.013784614999999915, 0.07756702000000021, 0.17029903000000024, -0.13699776599999985]
[0.006635214999999915, 0.03311902000000021, 0.19254003000000025, -0.13201516599999985]
[0.036377214999999914, 0.12271902000000022, 0.16351603000000026, -0.14239416599999985]
[0.025575214999999915, 0.14471502000000022, 0.13765403000000026, -0.15515316599999984]
[0.013151214999999916, 0.12754002000000023, 0.13239873000000027, -0.15725676599999985]
[0.016914914999999916, 0.11930422000000022, 0.14025303000000028, -0.14980436599999986]
[0.010817414999999915, 0.07928422000000022, 0.1587240300000003, -0.14378736599999986]
[0.0072149149999999156, 0.03479422000000022, 0.1797910300000003, -0.13435656599999987]
[0.017766914999999914, 0.04665122000000022, 0.1533800300000003, -0.13325326599999987]
[0.022946914999999915, 0.04923772000000022, 0.1449715300000003, -0.12364146599999987]
[-0.002965085000000086, 0.04818232000000022, 0.1577695300000003, -0.11322746599999986]
[-0.011598985000000086, 0.06753032000000023, 0.1340405300000003, -0.12412446599999986]
[0.04115701499999991, 0.06891662000000023, 0.13525433000000028, -0.11268946599999986]
[0.025128014999999906, 0.06502632000000023, 0.15145433000000028, -0.09358646599999987]
[0.03720801499999991, 0.10577032000000022, 0.10381933000000028, -0.11971546599999987]
[0.04425701499999991, 0.10748772000000022, 0.08596033000000028, -0.11610356599999987]
[0.049850914999999905, 0.10438372000000022, 0.08779103000000028, -0.11163826599999986]
[0.04241851499999991, 0.10109352000000021, 0.08351253000000028, -0.10930656599999986]
[0.013280514999999906, 0.006382520000000211, 0.18118053000000028, -0.11532816599999986]
[0.0706335149999999, 0.05919052000000021, 0.15858253000000028, -0.11457400599999985]
[0.0780763149999999, 0.021467520000000212, 0.17471353000000028, -0.09882000599999985]
