([-0.014904, -0.022183, 0.016054, 0.0089394], 2)
([-0.013169400000000001, 0.056512, 0.018741599999999997, -0.0289436], 4)
([0.0250746, 0.025431, 0.0432786, -0.0237412], 1)
([0.002592599999999997, 0.056346, 0.0193096, -0.0504522], 2)
([-0.018298400000000006, 0.0515038, 0.036349599999999996, -0.0330172], 1)
([-0.03397940000000001, -0.020942199999999994, 0.1018866, -0.034293199999999996], 1)
([-0.0040394000000000055, 0.05106880000000001, 0.0897336, -0.031082199999999997], 12)
([-0.025713400000000008, 0.05231030000000001, 0.0792686, -0.039702999999999995], 7)
([-0.024171100000000008, 0.05348970000000001, 0.06244559999999999, -0.03375059999999999], 3)
([0.015600899999999994, 0.05684180000000001, 0.08501159999999999, -0.01212559999999999], 2)
([0.013412099999999995, 0.03480380000000001, 0.0840576, -0.00648349999999999], 8)
([0.010610599999999994, 0.06553280000000002, 0.0502006, -0.0356385], 8)
([0.0058640999999999945, 0.022036800000000016, 0.0701016, -0.028121499999999997], 2)
([-0.006559900000000005, 0.004861800000000017, 0.0648463, -0.030225099999999998], 6)
([0.015383099999999997, 0.050364800000000015, 0.015086299999999997, -0.0574791], 7)
([0.0570371, 0.015869800000000017, 0.051516299999999994, -0.0466001], 6)
([0.0586729, -0.017714199999999986, 0.0652653, -0.0330311], 2)
([0.0495411, -0.037827199999999984, 0.0633088, -0.03236745], 1)
([0.049528248, -0.036440899999999984, 0.0613437, -0.032285695999999996], 1)
([0.030554247999999996, -0.0013668999999999834, 0.043501700000000004, -0.070776696], 6)
([0.014378247999999996, 0.009559100000000017, 0.0399515, -0.076772496], 1)
([0.016399847999999995, 0.02874110000000002, 0.007123499999999998, -0.08294929599999999], 1)
([-0.007949152000000004, -0.06375589999999999, 0.0970455, -0.08794939599999999], 4)
([-0.025498152000000003, -0.06456300999999999, 0.08946810000000001, -0.09165639599999999], 3)
([0.014220848000000001, -0.05419600999999999, 0.09706540000000001, -0.08164339599999998], 1)
([0.023899648000000003, 0.01771099000000001, 0.10986340000000001, -0.10620839599999998], 6)
([0.012958648000000001, 0.040782990000000005, 0.08462640000000002, -0.12066139599999998], 26)
([0.0028426480000000014, 0.03887919000000001, 0.07556670000000001, -0.12063136599999998], 22)
([0.0031448380000000014, 0.028367190000000007, 0.08959070000000002, -0.11289446599999997], 16)
([0.04245483800000001, 0.04690819000000001, 0.08935645000000002, -0.10058046599999997], 5)
([0.036310638000000006, 0.04599761000000001, 0.08617465000000002, -0.09555906599999997], 9)
([0.051387638000000006, 0.06559361000000001, 0.05559065000000002, -0.09678336599999997], 7)
([0.011976638000000005, -0.06319839000000001, 0.18618765, -0.12990836599999997], 1)
([0.062836638, -0.030400390000000006, 0.17348665000000002, -0.11871936599999997], 2)
([-0.006762362000000008, 0.05953060999999999, 0.17566865, -0.16443936599999998], 1)
([0.010036637999999994, 0.10159860999999999, 0.13027065000000002, -0.18837036599999998], 2)
([-0.015047362000000005, 0.09932231, 0.14515065000000002, -0.176301366], 10)
([-0.012039262000000005, 0.10106041, 0.12760865000000002, -0.17140926599999998], 14)
([-0.020187162000000005, 0.04367941, 0.17152765000000003, -0.16819826599999999], 10)
([-0.014563962000000003, 0.053694410000000005, 0.14880165000000004, -0.16825875199999998], 1)
([0.029731037999999998, 0.030187410000000005, 0.16584965000000004, -0.15916415199999998], 4)
([0.088513038, 0.08959641000000002, 0.13730565000000006, -0.16525045199999996], 6)
([0.071525038, 0.01843341000000001, 0.19520765000000007, -0.16357815199999998], 2)
([0.065566338, 0.04324441000000001, 0.16653465000000006, -0.172560952], 2)
([0.043393338000000004, 0.057915410000000014, 0.15926575000000007, -0.184284952], 7)
([0.097414338, 0.08895441000000001, 0.14772975000000008, -0.168633952], 2)
([0.093933338, 0.08508481000000001, 0.14294565000000006, -0.162371252], 4)
([0.072723338, 0.08452601000000001, 0.16243565000000007, -0.14884125199999998], 12)
([0.046437337999999995, 0.08632621000000001, 0.18039165000000007, -0.139113052], 2)
([0.048680537999999995, 0.08111151000000001, 0.17635305000000007, -0.127096052], 1)
([0.049893138, 0.08334621000000002, 0.17162035000000006, -0.11739365199999999], 19)
([0.048721537999999995, 0.08938841000000002, 0.16776165000000007, -0.11798430199999999], 9)
([0.04511903799999999, 0.044898410000000014, 0.18882865000000007, -0.10855350199999998], 4)
([0.035069038, 0.04574672000000001, 0.18636665000000008, -0.10398470199999998], 2)
([0.049570038, 0.08181372, 0.14580965000000007, -0.11995070199999999], 20)
([0.042662238, 0.07680602, 0.14226795000000006, -0.115200902], 2)
([0.024179238, 0.07990982, 0.15000235000000006, -0.10101190199999999], 2)
([0.030184238, 0.09923682, 0.11711435000000006, -0.10425340199999998], 2)
([0.036189238, 0.10923132, 0.09498835000000005, -0.10327941199999999], 1)
([0.020238238, 0.043511320000000006, 0.14267735000000006, -0.11271481199999998], 10)
([0.017763737999999998, 0.06287932, 0.11798035000000007, -0.12076661199999998], 12)
([0.038073737999999996, 0.08139932, 0.08785935000000006, -0.12073658199999998], 2)
([0.053977738, 0.10352032, 0.056676350000000056, -0.12190908199999997], 5)
([0.031360738, 0.05609232, 0.12016535000000006, -0.12079288199999998], 2)
([0.038767438, 0.07339132000000001, 0.08820235000000007, -0.12224988199999998], 1)
([0.044361338, 0.07028732000000001, 0.09003305000000007, -0.11778458199999997], 4)
([0.018942338, 0.06370692000000001, 0.11687505000000008, -0.10583258199999997], 2)
([-0.0016886620000000005, 0.04855992000000001, 0.12906505000000007, -0.10138018199999997], 7)
([0.055664337999999994, 0.10136792000000001, 0.10646705000000006, -0.10062602199999997], 1)
([0.04086433799999999, -0.00387607999999999, 0.20564305000000005, -0.10565202199999997], 5)
([0.05099933799999999, 0.08067492000000001, 0.18892305000000004, -0.12646702199999998], 4)
([0.06319733799999999, 0.10165692000000001, 0.15696905000000005, -0.125182722], 14)
([0.05446333799999999, 0.10132574000000001, 0.15495255000000005, -0.119605322], 16)
([0.04843793799999999, 0.11856274000000001, 0.13345155000000006, -0.127308022], 1)
([0.01855493799999999, 0.12168724000000002, 0.13795565000000007, -0.126618512], 2)
([-0.0031190620000000127, 0.12292874000000002, 0.12749065000000007, -0.135239312], 4)
([0.0003149379999999873, 0.12417024000000003, 0.12461735000000007, -0.133773912], 5)
([-0.019668062000000014, 0.05809824000000004, 0.1728713500000001, -0.13797231199999999], 14)
([0.010340937999999987, 0.11622424000000003, 0.1505653500000001, -0.144627612], 3)
([0.011976737999999987, 0.08264024000000003, 0.1643143500000001, -0.131058612], 2)
([0.005068937999999987, 0.07763254000000003, 0.1607726500000001, -0.126308812], 8)
([0.05568593799999999, 0.07405264000000003, 0.1652424500000001, -0.11632201199999999], 5)
([0.072484938, 0.11612064000000002, 0.1198444500000001, -0.14025301199999998], 1)
([0.062368938, 0.11421684000000003, 0.1107847500000001, -0.140222982], 1)
([0.045727937999999996, 0.10053884000000003, 0.1307547500000001, -0.134994682], 19)
([0.027681937999999996, 0.03239784000000004, 0.19777375000000008, -0.12331368200000001], 3)
([0.079713938, 0.06751384000000005, 0.1852357500000001, -0.11318468200000001], 3)
([0.091992938, 0.10782284000000004, 0.13880075000000008, -0.152309682], 2)
([0.09072393799999999, 0.09631784000000004, 0.1292869500000001, -0.146525382], 6)
([0.087121438, 0.05182784000000004, 0.1503539500000001, -0.13709458200000002], 6)
([0.082021138, 0.04946874000000004, 0.1505566800000001, -0.129461182], 8)
([0.078540138, 0.04559914000000004, 0.1457725800000001, -0.12319848200000001], 2)
([0.081548238, 0.04733724000000004, 0.1282305800000001, -0.11830638200000002], 1)
([0.072416438, 0.02722424000000004, 0.1262740800000001, -0.11764273200000001], 3)
([0.074659638, 0.02200954000000004, 0.12223548000000009, -0.10562573200000001], 1)
([0.074510618, 0.011766540000000039, 0.11283308000000009, -0.09913023200000001], 4)
([0.068822918, 0.02594054000000004, 0.09858108000000008, -0.11037623200000002], 33)
([0.059842018, -0.018921459999999966, 0.12059008000000009, -0.10530313200000002], 1)
([0.077661018, 0.050254540000000035, 0.10784608000000008, -0.12106213200000002], 7)
([0.055488018, 0.06492554000000003, 0.10057718000000009, -0.13278613200000003], 3)
([0.050741518, 0.02142954000000003, 0.12047818000000009, -0.12526913200000003], 1)
([0.041201218, 0.04125354000000003, 0.09731518000000008, -0.13722613200000003], 13)
([0.026420217999999995, 0.04268124000000003, 0.08569318000000009, -0.14208403200000003], 1)
([0.021755117999999997, 0.06606424000000002, 0.05588118000000009, -0.15251503200000002], 3)
([0.002639117999999996, 0.004461240000000019, 0.11194118000000008, -0.14766173200000002], 1)
([-0.009784882000000003, -0.01271375999999998, 0.10668588000000008, -0.14976533200000003], 2)
([0.029336118, 0.01702124000000002, 0.11597108000000009, -0.14370953200000003], 16)
([0.051279118, 0.06252424000000002, 0.06621108000000009, -0.17096353200000003], 1)
([0.055042818, 0.05428844000000002, 0.07406538000000008, -0.16351113200000003], 3)
([0.031245817999999998, 0.03988644000000002, 0.08533838000000009, -0.16190353200000004], 5)
([0.070555818, 0.058427440000000025, 0.08510413000000008, -0.14958953200000005], 3)
([0.04934581800000001, 0.05786864000000003, 0.10459413000000009, -0.13605953200000004], 2)
([0.04938636300000001, 0.06415914000000003, 0.09818203000000009, -0.12847783200000004], 8)
([0.05539136300000001, 0.08348614000000003, 0.06529403000000009, -0.13171933200000005], 10)
([0.031276363000000015, -0.007872859999999968, 0.15873803000000009, -0.13824523200000005], 1)
([0.028801863000000014, 0.011495140000000032, 0.1340410300000001, -0.14629703200000005], 8)
([0.04911186300000002, 0.030015140000000034, 0.10392003000000008, -0.14626700200000006], 8)
([0.04692306300000002, 0.007977140000000032, 0.10296603000000008, -0.14062490200000005], 1)
([0.037316063000000024, 0.034940140000000036, 0.07174003000000008, -0.15374590200000005], 11)
([0.047433063000000025, 0.04396214000000004, 0.04823403000000008, -0.14947450200000004], 10)
([0.021783063000000026, -0.013936859999999968, 0.10835603000000008, -0.14900482200000004], 4)
([0.036679063000000026, 0.02035114000000003, 0.06804703000000008, -0.16326382200000003], 4)
([0.05258306300000003, 0.04247214000000003, 0.036864030000000075, -0.16443632200000002], 2)
([0.02936206300000003, -0.050831859999999965, 0.12919403000000007, -0.17242342200000002], 3)
([0.03840276300000003, -0.017123859999999963, 0.08420703000000007, -0.20938842200000002], 2)
([0.03961536300000003, -0.014889159999999964, 0.07947433000000007, -0.19968602200000002], 9)
([0.03218296300000003, -0.018179359999999964, 0.07519583000000006, -0.19735432200000003], 2)
([0.05421696300000003, 0.041767640000000036, 0.08049673000000006, -0.18885452200000002], 3)
([0.036737963000000026, -0.016462359999999968, 0.13919573000000007, -0.17673452200000003], 3)
([0.029763463000000025, -0.03413435999999997, 0.13574833000000008, -0.17797172200000003], 7)
([0.0034774630000000244, -0.032334159999999966, 0.15370433000000008, -0.16824352200000003], 1)
([0.015557463000000025, 0.00840984000000003, 0.10606933000000009, -0.19437252200000005], 6)
([0.029075463000000024, 0.01900484000000003, 0.08263233000000009, -0.19037272200000005], 3)
([0.026936063000000024, 0.01217614000000003, 0.08359765000000009, -0.17840772200000005], 22)
([0.020838563000000025, -0.02784385999999997, 0.1020686500000001, -0.17239072200000005], 2)
([0.059670563000000024, 0.03617914000000004, 0.07774865000000009, -0.18222702200000004], 1)
([0.05306976300000002, 0.003919140000000043, 0.1158066500000001, -0.17039102200000006], 4)
([0.03704076300000002, 2.8840000000043397e-05, 0.1320066500000001, -0.15128802200000005], 2)
([0.09062676300000003, 0.037585840000000044, 0.11466165000000009, -0.14049902200000006], 11)
([0.10282476300000003, 0.05856784000000004, 0.08270765000000009, -0.13921472200000007], 11)
([0.08434176300000003, 0.061671640000000034, 0.0904420500000001, -0.12502572200000006], 1)
([0.06555976300000002, -0.004193359999999972, 0.13892805000000008, -0.12524138200000007], 1)
([0.07451636300000002, 0.07356964000000002, 0.11145505000000008, -0.14459438200000008], 6)
([0.06985126300000001, 0.09695264000000002, 0.08164305000000008, -0.15502538200000007], 1)
([0.08336926300000001, 0.10754764000000003, 0.05820605000000008, -0.15102558200000007], 1)
([0.11712526300000001, 0.06659664000000001, 0.10187605000000008, -0.14032758200000006], 4)
([0.12724226300000002, 0.07561864000000001, 0.07837005000000008, -0.13605618200000005], 5)
([0.13152526300000003, 0.06612054000000002, 0.06763905000000008, -0.13284518200000006], 3)
([0.11564826300000003, 4.854000000002745e-05, 0.12566105000000008, -0.12968588200000006], 9)
([0.11766986300000003, 0.01923054000000003, 0.09283305000000008, -0.13586268200000007], 11)
([0.11337586300000002, 0.01776124000000003, 0.09327570000000009, -0.13742318200000006], 3)
([0.09349486300000003, 0.02775574000000003, 0.09041950000000008, -0.14442758200000005], 7)
([0.08518276300000002, 0.028148810000000028, 0.09095640000000009, -0.14673808200000005], 6)
([0.08304336300000002, 0.021320110000000028, 0.0919217200000001, -0.13477308200000004], 4)
([0.09885336300000003, 0.030011010000000025, 0.06878372000000009, -0.12653188200000004], 4)
([0.07002436300000003, 0.06897501000000003, 0.06689572000000009, -0.13820388200000003], 5)
([0.057600363000000036, 0.051800010000000035, 0.061640420000000085, -0.14030748200000004], 7)
([0.040496363000000035, 0.004020010000000039, 0.12374942000000008, -0.13633348200000003], 2)
([0.034470963000000035, 0.021257010000000038, 0.10224842000000008, -0.14403618200000004], 1)
([0.036910363000000036, 0.03599001000000004, 0.08805642000000008, -0.14988968200000005], 5)
([0.020269363000000037, 0.02231201000000004, 0.10802642000000008, -0.14466138200000006], 14)
([0.06738336300000004, 0.04306701000000004, 0.10532442000000009, -0.13228238200000006], 1)
([0.07482616300000004, 0.005344010000000038, 0.12145542000000009, -0.11652838200000006], 2)
([0.07783426300000004, 0.007082110000000038, 0.10391342000000009, -0.11163628200000006], 4)
([0.09977726300000005, 0.05258511000000004, 0.05415342000000009, -0.13889028200000006], 3)
([0.08560326300000004, 0.03005011000000004, 0.06933342000000009, -0.13269218200000005], 10)
([0.055720263000000034, 0.03317461000000004, 0.07383752000000009, -0.13200267200000004], 5)
([0.054451263000000034, 0.02166961000000004, 0.06432372000000008, -0.12621837200000005], 2)
([0.049144063000000036, 0.020696960000000042, 0.06214442000000008, -0.11579237200000005], 12)
([0.038589063000000035, 0.02864286000000004, 0.04517642000000008, -0.12046917200000004], 8)
([0.03161456300000003, 0.01097086000000004, 0.041729020000000075, -0.12170637200000003], 3)
([0.017619563000000033, -0.008191139999999958, 0.06688302000000007, -0.11571517200000003], 7)
([0.026576163000000035, 0.06957186000000004, 0.03941002000000007, -0.13506817200000004], 14)
([-0.011626836999999966, -0.06097913999999996, 0.20899302000000008, -0.15812017200000006], 2)
([0.020209163000000037, 0.011341860000000037, 0.19828002000000008, -0.18402917200000007], 2)
([0.053213163000000036, 0.08215286000000004, 0.1850220200000001, -0.18180087200000009], 2)
([0.04378766300000003, 0.08254593000000003, 0.18260282000000008, -0.17864157200000008], 7)
([0.02793666300000003, 0.06098393000000003, 0.1996848200000001, -0.16962457200000008], 37)
([0.037607463000000035, 0.09940993000000004, 0.1503708200000001, -0.21094757200000008], 13)
([0.057784463000000036, 0.11739193000000003, 0.1207898200000001, -0.2088485720000001], 3)
([0.051516063000000036, 0.05438193000000004, 0.1686328200000001, -0.1977885720000001], 2)
([0.04742096300000004, 0.052829830000000036, 0.1692382700000001, -0.1986766420000001], 2)
([0.04146226300000004, 0.07764083000000004, 0.1405652700000001, -0.20765944200000008], 9)
([0.03431286300000004, 0.033192830000000034, 0.16280627000000011, -0.20267684200000008], 7)
([0.03541606300000004, 0.052933830000000036, 0.1291382700000001, -0.20920274200000008], 7)
([0.05132006300000004, 0.07505483000000003, 0.09795527000000011, -0.21037524200000007], 7)
([0.02964606300000004, 0.07629633000000004, 0.0874902700000001, -0.21899604200000009], 5)
([0.0027820630000000394, 0.07532368000000003, 0.0936565700000001, -0.2183841220000001], 2)
([-0.004424736999999961, 0.0077406800000000275, 0.15206457000000012, -0.2121472220000001], 3)
([0.027878263000000045, 0.08612468000000002, 0.11671657000000012, -0.2242982220000001], 6)
([0.0036802630000000447, 0.08368288000000003, 0.12373117000000011, -0.22011732200000012], 2)
([0.05654826300000005, 0.11625288000000003, 0.11001017000000012, -0.2084493220000001], 6)
([0.028281263000000046, 0.02584588000000003, 0.20070417000000013, -0.2182726220000001], 4)
([0.06738326300000005, 0.08649588000000002, 0.17617017000000013, -0.22509602200000012], 2)
([0.08769326300000005, 0.10501588000000003, 0.14604917000000012, -0.22506599200000013], 4)
([0.08230326300000004, 0.05334588000000003, 0.18044817000000013, -0.22454458200000013], 15)
([0.08830826300000004, 0.06334038000000003, 0.15832217000000012, -0.22357059200000012], 11)
([0.08815924300000004, 0.05309738000000003, 0.14891977000000012, -0.21707509200000014], 2)
([0.09324054300000004, 0.05787728000000003, 0.12911577000000013, -0.21130369200000013], 3)
([0.10064724300000004, 0.07517628000000004, 0.09715277000000014, -0.21276069200000014], 1)
([0.09079324300000004, 0.008566280000000037, 0.15539777000000013, -0.20729969200000015], 10)
([0.06515324300000004, -0.008484719999999963, 0.17042377000000014, -0.20402399200000015], 1)
([0.08004924300000005, 0.025803280000000036, 0.13011477000000016, -0.21828299200000015], 10)
([0.07050894300000005, 0.045627280000000034, 0.10695177000000015, -0.23023999200000014], 3)
([0.054479943000000045, 0.041736980000000035, 0.12315177000000016, -0.21113699200000013], 1)
([0.06048494300000005, 0.06106398000000003, 0.09026377000000016, -0.21437849200000014], 3)
([0.04811594300000005, 0.04415798000000003, 0.11544377000000015, -0.20921489200000015], 1)
([0.05370984300000005, 0.041053980000000025, 0.11727447000000016, -0.20474959200000015], 16)
([0.10773084300000005, 0.07209298000000003, 0.10573847000000015, -0.18909859200000015], 5)
([0.08064784300000005, 0.0038269800000000215, 0.18107747000000016, -0.18319789200000014], 14)
([0.09514884300000005, 0.03989398000000002, 0.14052047000000015, -0.19916389200000015], 12)
([0.08024484300000005, 0.017710980000000022, 0.15657447000000013, -0.19022449200000013], 5)
([0.09605484300000006, 0.026401880000000023, 0.13343647000000014, -0.18198329200000013], 3)
([0.08726744300000006, 0.004280880000000025, 0.13291946000000013, -0.18098344200000013], 4)
([0.07063044300000006, 0.03716188000000002, 0.11021846000000013, -0.20320744200000013], 10)
([0.037026443000000055, 0.033892280000000025, 0.13154246000000014, -0.19719044200000013], 1)
([0.051922443000000054, 0.06818028000000002, 0.09123346000000014, -0.21144944200000013], 2)
([0.048441443000000056, 0.06431068000000002, 0.08644936000000014, -0.20518674200000012], 9)
([0.05444644300000006, 0.08363768000000002, 0.05356136000000014, -0.20842824200000012], 8)
([0.02302344300000006, -0.04672731999999999, 0.21033436000000016, -0.21504474200000012], 10)
([0.02054894300000006, -0.02735931999999999, 0.18563736000000017, -0.22309654200000012], 4)
([0.02439674300000006, 0.03862968000000001, 0.18230136000000016, -0.22874314200000012], 7)
([0.014971243000000061, 0.039022750000000016, 0.17988216000000015, -0.22558384200000012], 4)
([0.005430943000000061, 0.05884675000000002, 0.15671916000000016, -0.2375408420000001], 7)
([0.004161943000000061, 0.047341750000000016, 0.14720536000000017, -0.23175654200000012], 7)
([0.05017594300000006, 0.10360575000000002, 0.12597036000000017, -0.2298256420000001], 2)
([0.05761874300000006, 0.06588275000000002, 0.14210136000000018, -0.21407164200000012], 22)
([0.07792874300000006, 0.08440275000000003, 0.11198036000000017, -0.21404161200000013], 3)
([0.05284474300000007, 0.08212645000000003, 0.12686036000000017, -0.20197261200000013], 8)
([0.036993743000000065, 0.060564450000000034, 0.14394236000000016, -0.19295561200000014], 1)
([0.030085943000000066, 0.05555675000000003, 0.14040066000000015, -0.18820581200000014], 7)
([0.031721743000000066, 0.021972750000000027, 0.15414966000000016, -0.17463681200000014], 4)
([0.05732674300000007, 0.11465575000000003, 0.11823666000000016, -0.18819681200000013], 20)
([0.042545743000000066, 0.11608345000000003, 0.10661466000000017, -0.19305471200000013], 9)
([0.08495174300000007, 0.09123145000000003, 0.12269466000000016, -0.18589971200000013], 3)
([0.07985144300000006, 0.08887235000000003, 0.12289739000000016, -0.17826631200000012], 4)
([0.06459944300000006, 0.026338350000000024, 0.17642139000000018, -0.17227511200000012], 7)
([0.05454944300000006, 0.027186660000000026, 0.17395939000000019, -0.1677063120000001], 6)
([0.05089884300000006, 0.056114660000000025, 0.1374983900000002, -0.1983093120000001], 5)
([0.03241584300000006, 0.05921846000000002, 0.1452327900000002, -0.1841203120000001], 2)
([0.038039043000000064, 0.06923346000000002, 0.1225067900000002, -0.1841807980000001], 1)
([0.039251643000000065, 0.07146816000000003, 0.11777409000000019, -0.1744783980000001], 5)
([0.026827643000000068, 0.054293160000000035, 0.11251879000000019, -0.1765819980000001], 5)
([0.0005416430000000673, 0.056093360000000037, 0.13047479000000017, -0.1668537980000001], 1)
([-0.0016471569999999326, 0.034055360000000034, 0.12952079000000016, -0.1612116980000001], 1)
([0.0013609430000000675, 0.035793460000000034, 0.11197879000000016, -0.1563195980000001], 13)
([0.011477943000000069, 0.044815460000000036, 0.08847279000000016, -0.15204819800000008], 1)
([0.051524943000000066, 0.049409160000000035, 0.10209379000000016, -0.13586719800000008], 3)
([0.05156548800000007, 0.05569966000000003, 0.09568169000000015, -0.12828549800000008], 10)
([0.04542128800000007, 0.05478908000000003, 0.09249989000000015, -0.12326409800000009], 4)
([0.038271888000000066, 0.01034108000000003, 0.11474089000000015, -0.11828149800000008], 12)
([0.03360678800000007, 0.03372408000000003, 0.08492889000000015, -0.1287124980000001], 25)
([0.026632288000000066, 0.01605208000000003, 0.08148149000000014, -0.12994969800000009], 11)
([0.0024342880000000656, 0.01361028000000003, 0.08849609000000014, -0.1257687980000001], 4)
([0.008028188000000066, 0.010506280000000031, 0.09032679000000014, -0.12130349800000009], 6)
([0.012311188000000067, 0.0010081800000000304, 0.07959579000000014, -0.11809249800000009], 2)
([0.020055688000000065, 0.09156018000000002, 0.05550679000000014, -0.13197649800000008], 3)
([-0.022054311999999937, -0.03317581999999998, 0.20521079000000014, -0.1458604980000001], 1)
([-0.027135911999999936, -0.00449581999999998, 0.18710279000000013, -0.16847249800000008], 1)
([0.011281088000000064, 0.09571918000000001, 0.14440379000000014, -0.2176314980000001], 4)
([0.06530208800000006, 0.12675818000000003, 0.13286779000000015, -0.2019804980000001], 15)
([0.06906578800000006, 0.11852238000000002, 0.14072209000000016, -0.1945280980000001], 5)
([0.08496978800000006, 0.14064338, 0.10953909000000016, -0.1957005980000001], 5)
([0.06832878800000006, 0.12696538000000002, 0.12950909000000016, -0.1904722980000001], 12)
([0.059196988000000055, 0.10685238000000002, 0.12755259000000016, -0.1898086480000001], 2)
([0.061440188000000055, 0.10163768000000002, 0.12351399000000016, -0.1777916480000001], 15)
([0.04622018800000005, 0.035254680000000024, 0.18100499000000017, -0.1788607480000001], 6)
([0.04519678800000005, 0.05344368000000002, 0.15883599000000018, -0.1845332480000001], 7)
([0.02456578800000005, 0.03829668000000002, 0.17102599000000018, -0.1800808480000001], 2)
([0.0039037880000000504, 0.03999338000000002, 0.16097199000000018, -0.18837834800000008], 2)
([-0.00352861199999995, 0.03670318000000002, 0.15669349000000019, -0.1860466480000001], 4)
([0.04454838800000004, 0.05903018000000002, 0.15406009000000018, -0.1705126480000001], 8)
([0.039883288000000044, 0.08241318000000002, 0.12424809000000017, -0.1809436480000001], 5)
([0.026469288000000046, 0.06325118000000002, 0.12269429000000018, -0.18214204800000008], 15)
([0.07358328800000005, 0.08400618000000001, 0.11999229000000018, -0.16976304800000008], 3)
([0.06848298800000005, 0.08164708000000001, 0.12019502000000018, -0.16212964800000007], 5)
([0.06252428800000005, 0.10645808000000001, 0.09152202000000018, -0.17111244800000008], 6)
([0.06595828800000006, 0.10769958000000002, 0.08864872000000018, -0.16964704800000008], 3)
([0.05717088800000006, 0.08557858000000002, 0.08813171000000018, -0.16864719800000008], 2)
([0.048858788000000056, 0.08597165000000001, 0.08866861000000019, -0.17095769800000007], 4)
([0.028875788000000055, 0.01989965000000002, 0.1369226100000002, -0.17515609800000007], 1)
([0.034469688000000054, 0.01679565000000002, 0.13875331000000019, -0.17069079800000006], 3)
([0.013807688000000054, 0.01849235000000002, 0.12869931000000018, -0.17898829800000005], 2)
([0.019430888000000056, 0.02850735000000002, 0.10597331000000018, -0.17904878400000004], 3)
([0.05942488800000006, 0.03755005000000002, 0.11766631000000018, -0.16215678400000005], 21)
([0.05840148800000006, 0.055739050000000026, 0.09549731000000018, -0.16782928400000005], 12)
([0.039285488000000056, -0.005863949999999979, 0.15155731000000017, -0.16297598400000005], 5)
([0.03648398800000006, 0.024865050000000024, 0.11770031000000017, -0.19213098400000006], 11)
([0.03117678800000006, 0.023892400000000025, 0.11552101000000017, -0.18170498400000007], 7)
([0.01362778800000006, 0.023085290000000026, 0.10794361000000018, -0.18541198400000006], 13)
([0.00449598800000006, 0.0029722900000000267, 0.10598711000000018, -0.18474833400000007], 4)
([0.00101498800000006, -0.0008973099999999737, 0.10120301000000018, -0.17848563400000006], 2)
([0.041343988000000054, 0.0014201900000000264, 0.11011121000000018, -0.16666263400000006], 7)
([0.054861988000000056, 0.012015190000000028, 0.08667421000000018, -0.16266283400000006], 5)
([0.06226868800000006, 0.02931419000000003, 0.054711210000000184, -0.16411983400000008], 1)
([0.06931768800000006, 0.031031590000000032, 0.036852210000000184, -0.16050793400000007], 3)
([0.05674968800000006, 0.01629859000000003, 0.06557021000000018, -0.15604263400000007], 5)
([0.02941168800000006, 0.02085089000000003, 0.08996121000000018, -0.15386603400000007], 9)
([0.02693718800000006, 0.040218890000000035, 0.06526421000000018, -0.16191783400000007], 8)
([0.017344888000000058, -0.02690910999999996, 0.11512121000000018, -0.15862923400000006], 2)
([0.05680488800000006, 0.04160489000000005, 0.09967821000000018, -0.16421123400000007], 3)
([0.04983038800000006, 0.023932890000000047, 0.09623081000000018, -0.16544843400000006], 2)
([0.05013257800000006, 0.013420890000000048, 0.11025481000000018, -0.15771153400000007], 18)
([0.027328578000000058, 0.010358290000000048, 0.12360181000000017, -0.14394853400000007], 3)
([0.014661578000000059, 0.03854129000000005, 0.09934181000000017, -0.16281053400000006], 6)
([0.01766967800000006, 0.04027939000000005, 0.08179981000000017, -0.15791843400000005], 4)
([0.033573678000000065, 0.06240039000000004, 0.050616810000000165, -0.15909093400000004], 1)
([0.026665878000000066, 0.05739269000000004, 0.04707511000000016, -0.15434113400000005], 4)
([0.009959878000000064, 0.036492690000000036, 0.06291511000000016, -0.14722493400000006], 1)
([-0.014238121999999936, 0.034050890000000035, 0.06992971000000016, -0.14304403400000007], 2)
([-0.024288121999999936, 0.03489920000000003, 0.06746771000000015, -0.13847523400000006], 1)
([0.006575878000000063, 0.009054200000000033, 0.08977671000000015, -0.13538053400000005], 1)
([0.04540787800000006, 0.07307720000000004, 0.06545671000000014, -0.14521683400000004], 1)
([0.03529187800000006, 0.07117340000000004, 0.056397010000000136, -0.14518680400000006], 3)
([0.02869107800000006, 0.03891340000000004, 0.09445501000000014, -0.13335080400000004], 3)
([0.04376807800000006, 0.058509400000000045, 0.06387101000000014, -0.13457510400000006], 2)
([0.018103078000000057, -0.010314599999999952, 0.13928701000000016, -0.12749770400000004], 7)
([0.07491307800000005, 0.06763540000000005, 0.11243901000000016, -0.13675210400000004], 3)
([0.05968507800000005, 0.0028464000000000544, 0.17000701000000015, -0.12801960400000004], 7)
([0.04262107800000005, 0.035934400000000054, 0.14717801000000014, -0.14999760400000003], 5)
([0.05481907800000005, 0.05691640000000005, 0.11522401000000014, -0.14871330400000005], 7)
([0.05308947800000005, 0.04510040000000005, 0.12904201000000015, -0.14137730400000004], 9)
([0.04354917800000005, 0.06492440000000005, 0.10587901000000015, -0.15333430400000003], 2)
([0.03745167800000005, 0.02490440000000005, 0.12435001000000015, -0.14731730400000004], 10)
([0.03652973800000005, 0.02883590000000005, 0.12106541000000015, -0.14869670400000004], 10)
([0.03807203800000005, 0.03001530000000005, 0.10424241000000015, -0.14274430400000004], 11)
([0.044077038000000054, 0.040009800000000054, 0.08211641000000014, -0.14177031400000004], 3)
([0.03465153800000005, 0.040402870000000056, 0.07969721000000014, -0.13861101400000003], 10)
([0.03104903800000005, -0.004087129999999946, 0.10076421000000015, -0.12918021400000004], 1)
([0.04892403800000005, 0.043712870000000056, 0.04940221000000015, -0.16154221400000005], 5)
([0.026584038000000053, -0.026601129999999945, 0.12433821000000014, -0.15540881400000003], 6)
([0.018323938000000053, 0.003009870000000057, 0.11147421000000014, -0.17005581400000003], 1)
([0.007382938000000052, 0.026081870000000056, 0.08623721000000015, -0.18450881400000002], 4)
([-0.01852906199999995, 0.025026470000000054, 0.09903521000000015, -0.17409481400000001], 6)
([0.013773938000000055, 0.10341047000000005, 0.06368721000000015, -0.186245814], 7)
([-0.019830061999999947, 0.10014087000000005, 0.08501121000000014, -0.18022881400000001], 5)
([0.01483693800000005, 0.059416870000000045, 0.12789321000000015, -0.16481081400000003], 12)
([0.03514693800000005, 0.07793687000000005, 0.09777221000000014, -0.16478078400000004], 6)
([0.03625013800000005, 0.09767787000000006, 0.06410421000000013, -0.17130668400000004], 2)
([0.018174138000000048, 0.009546870000000054, 0.15119021000000016, -0.17347488400000005], 1)
([0.01879938800000005, 0.038847870000000055, 0.11572321000000016, -0.20021188400000006], 1)
([0.011366988000000048, 0.035557670000000055, 0.11144471000000016, -0.19788018400000007], 8)
([0.015130688000000048, 0.027321870000000054, 0.11929901000000015, -0.19042778400000007], 6)
([0.0014706880000000463, 0.029163470000000052, 0.12835291000000015, -0.17462178400000006], 2)
([0.023413688000000047, 0.07466647000000005, 0.07859291000000015, -0.20187578400000006], 1)
([0.033530688000000045, 0.08368847000000006, 0.055086910000000155, -0.19760438400000005], 2)
([0.07237668800000005, 0.053352470000000055, 0.08042091000000015, -0.19558298400000004], 5)
([0.06516988800000005, -0.01423052999999995, 0.13882891000000014, -0.18934608400000005], 4)
([0.06671218800000005, -0.013051129999999949, 0.12200591000000013, -0.18339368400000006], 2)
([0.10292818800000005, 0.07360987000000005, 0.09393291000000013, -0.18786358400000006], 10)
([0.08855118800000004, 0.05928987000000005, 0.11507691000000013, -0.18365688400000005], 2)
([0.06714618800000005, 0.05761367000000005, 0.12828691000000014, -0.18574748400000005], 34)
([0.06835878800000005, 0.05984837000000005, 0.12355421000000014, -0.17604508400000005], 15)
([0.06092638800000005, 0.056558170000000046, 0.11927571000000013, -0.17371338400000005], 8)
([0.05919678800000005, 0.044742170000000046, 0.13309371000000014, -0.16637738400000004], 2)
([0.04071378800000005, 0.04784597000000004, 0.14082811000000015, -0.15218838400000004], 14)
([0.024007788000000047, 0.026945970000000045, 0.15666811000000014, -0.14507218400000005], 12)
([-0.00019021199999995353, 0.024504170000000044, 0.16368271000000015, -0.14089128400000006], 8)
([0.04277878800000005, 0.10067417000000005, 0.13980871000000014, -0.15050768400000006], 1)
([0.041755388000000046, 0.11886317000000005, 0.11763971000000015, -0.15618018400000006], 5)
([0.0036823880000000433, 0.037892170000000044, 0.21941171000000015, -0.14967178400000006], 2)
([0.053044388000000046, 0.11393817000000005, 0.19598271000000014, -0.15820198400000005], 4)
([0.04361888800000005, 0.11433124000000004, 0.19356351000000013, -0.15504268400000004], 2)
([0.05417088800000005, 0.12618824000000003, 0.16715251000000014, -0.15393938400000004], 2)
([0.04518998800000005, 0.08132624000000002, 0.18916151000000014, -0.14886628400000004], 4)
([0.04305058800000005, 0.07449754000000003, 0.19012683000000014, -0.13690128400000004], 7)
([0.03814248800000005, 0.10294954000000003, 0.15369083000000014, -0.16790528400000004], 3)
([0.03347738800000005, 0.12633254000000002, 0.12387883000000013, -0.17833628400000004], 2)
([0.02362338800000005, 0.05972254000000002, 0.18212383000000013, -0.17287528400000005], 2)
([0.02564498800000005, 0.07890454000000002, 0.14929583000000013, -0.17905208400000006], 1)
([0.03305168800000005, 0.09620354000000003, 0.11733283000000014, -0.18050908400000004], 4)
([0.04049448800000005, 0.05848054000000003, 0.13346383000000014, -0.16475508400000005], 1)
([0.046499488000000054, 0.06847504000000003, 0.11133783000000014, -0.16378109400000004], 3)
([0.046801678000000055, 0.05796304000000003, 0.12536183000000015, -0.15604419400000005], 1)
([0.050235678000000054, 0.05920454000000003, 0.12248853000000015, -0.15457879400000005], 1)
([0.03968067800000005, 0.06715044000000003, 0.10552053000000015, -0.15925559400000006], 5)
([0.029630678000000053, 0.06799875000000004, 0.10305853000000015, -0.15468679400000004], 6)
([-0.0002523219999999507, 0.07112325000000004, 0.10756263000000015, -0.15399728400000004], 2)
([0.0035113780000000493, 0.06288745000000004, 0.11541693000000014, -0.14654488400000004], 1)
([0.04626737800000005, 0.03635945000000004, 0.13679193000000014, -0.13710118400000004], 3)
([0.04116707800000005, 0.03400035000000004, 0.13699466000000016, -0.12946778400000003], 9)
([0.04115422600000005, 0.03538665000000004, 0.13502956000000016, -0.12938603000000004], 7)
([0.026373226000000048, 0.03681435000000004, 0.12340756000000017, -0.13424393000000004], 16)
([0.03237822600000005, 0.056141350000000034, 0.09051956000000017, -0.13748543000000005], 4)
([0.01634922600000005, 0.052251050000000035, 0.10671956000000017, -0.11838243000000004], 17)
([0.0004982260000000495, 0.030689050000000034, 0.12380156000000017, -0.10936543000000004], 2)
([0.01729722600000005, 0.07275705000000003, 0.07840356000000018, -0.13329643000000005], 2)
([0.02030532600000005, 0.07449515000000004, 0.060861560000000176, -0.12840433000000004], 1)
([0.00621132600000005, 0.05324315000000004, 0.05982186000000018, -0.13032683000000003], 14)
([-0.00338097399999995, -0.013884849999999956, 0.10967886000000018, -0.12703823000000003], 3)
([0.032531026000000046, 0.016244150000000047, 0.11696766000000018, -0.12139613000000003], 4)
([0.023797026000000047, 0.015912970000000047, 0.11495116000000018, -0.11581873000000004], 11)
([0.024458316000000046, 0.040826970000000046, 0.08555016000000018, -0.12203433000000004], 3)
([0.018432916000000046, 0.05806397000000005, 0.06404916000000017, -0.12973703000000003], 9)
([-0.002808083999999954, -0.010905029999999954, 0.12004116000000017, -0.13445263000000002], 3)
([0.040255916000000044, 0.07116297000000005, 0.09221716000000017, -0.14878863], 14)
([0.04135911600000004, 0.09090397000000006, 0.05854916000000017, -0.15531453], 3)
([0.012369116000000041, 0.08486157000000005, 0.08459416000000017, -0.14153853], 1)
([0.003581716000000042, 0.06274057000000005, 0.08407715000000017, -0.14053868], 4)
([0.023891716000000042, 0.08126057000000006, 0.05395615000000017, -0.14050865], 1)
([0.052860716000000044, 0.08833737000000005, 0.07685615000000016, -0.12184565000000001], 1)
([0.052891917000000045, 0.048276370000000055, 0.09481215000000016, -0.11267345000000001], 4)
([0.019287917000000043, 0.04500677000000006, 0.11613615000000016, -0.10665645000000001], 2)
([0.019138897000000044, 0.034763770000000055, 0.10673375000000015, -0.10016095000000001], 3)
([0.006714897000000044, 0.017588770000000056, 0.10147845000000015, -0.10226455000000001], 1)
([0.03231989700000005, 0.11027177000000006, 0.06556545000000015, -0.11582455000000001], 1)
([0.015215897000000048, 0.062491770000000064, 0.12767445000000016, -0.11185055], 19)
([0.06250089700000006, 0.08355677000000006, 0.12484395000000016, -0.09622555], 9)
([0.03741689700000006, 0.08128047000000006, 0.13972395000000015, -0.08415655000000001], 5)
([0.03624529700000006, 0.08732267000000006, 0.13586525000000016, -0.08474720000000001], 2)
([0.03014779700000006, 0.04730267000000006, 0.15433625000000017, -0.07873020000000001], 5)
([0.03309979700000006, 0.09615867000000006, 0.10284625000000017, -0.14105320000000002], 4)
([0.013983797000000062, 0.03455567000000005, 0.15890625000000017, -0.1361999], 1)
([0.053293797000000066, 0.053096670000000054, 0.15867200000000017, -0.12388590000000001], 1)
([0.035711797000000066, 0.08049367000000006, 0.13334900000000016, -0.14622590000000002], 11)
([0.011914797000000064, 0.06609167000000006, 0.14462200000000017, -0.14461830000000003], 1)
([-0.00897620299999994, 0.06124947000000006, 0.16166200000000017, -0.12718330000000003], 8)
([-0.0033530029999999387, 0.07126447000000007, 0.13893600000000017, -0.12724378600000003], 4)
([0.009829997000000062, 0.09028147000000006, 0.10582500000000017, -0.12659307600000003], 1)
([0.0036857970000000627, 0.08937089000000006, 0.10264320000000017, -0.12157167600000003], 9)
([-0.019118202999999938, 0.08630829000000007, 0.11599020000000017, -0.10780867600000003], 2)
([-0.011675402999999938, 0.048585290000000066, 0.13212120000000016, -0.09205467600000003], 4)
([0.03433859700000006, 0.10484929000000007, 0.11088620000000016, -0.09012377600000003], 8)
([0.01337659700000006, 0.03379029000000007, 0.17707420000000015, -0.09349457600000002], 2)
([0.03319459700000006, 0.12641129000000006, 0.14186420000000016, -0.11221457600000002], 5)
([0.04827159700000006, 0.14600729000000007, 0.11128020000000016, -0.11343887600000002], 1)
([0.042964397000000064, 0.14503464000000008, 0.10910090000000017, -0.10301287600000002], 2)
([0.026935397000000062, 0.14114434000000006, 0.12530090000000016, -0.08390987600000002], 4)
([0.07328739700000006, 0.11105734000000006, 0.15207390000000015, -0.07178987600000002], 6)
([0.06726199700000006, 0.12829434000000006, 0.13057290000000016, -0.07949257600000002], 3)
([0.04729599700000006, 0.03329334000000006, 0.22739290000000018, -0.08078147600000002], 1)
([0.04032149700000006, 0.01562134000000006, 0.22394550000000019, -0.08201867600000001], 2)
([0.018647497000000058, 0.01686284000000006, 0.21348050000000018, -0.09063947600000001], 3)
([-0.003004502999999943, 0.04707384000000006, 0.1893485000000002, -0.11488047600000001], 1)
([0.031035497000000058, 0.13433484000000007, 0.1594335000000002, -0.12060467600000001], 2)
([0.009794497000000058, 0.06536584000000006, 0.21542550000000021, -0.125320276], 8)
([0.008525497000000059, 0.05386084000000006, 0.20591170000000023, -0.119535976], 6)
([0.04082849700000006, 0.13224484000000006, 0.1705637000000002, -0.131686976], 9)
([0.04057535700000006, 0.13050654000000006, 0.1694298000000002, -0.11948897600000001], 4)
([0.023026357000000063, 0.12969943000000006, 0.1618524000000002, -0.12319597600000001], 4)
([0.028649557000000065, 0.13971443000000006, 0.1391264000000002, -0.12325646200000001], 9)
([0.028500537000000065, 0.12947143000000005, 0.1297240000000002, -0.11676096200000001], 18)
([0.06953853700000007, 0.08140243000000005, 0.1632150000000002, -0.121683462], 10)
([0.08173653700000007, 0.10238443000000005, 0.13126100000000018, -0.120399162], 7)
([0.07358863700000007, 0.04500343000000005, 0.17518000000000017, -0.117188162], 4)
([0.06578913700000007, 0.07732543000000006, 0.14236000000000015, -0.148192162], 22)
([0.050885137000000066, 0.055142430000000055, 0.15841400000000017, -0.13925276199999997], 3)
([0.04841063700000007, 0.07451043000000006, 0.13371700000000017, -0.14730456199999997], 2)
([0.033629637000000066, 0.07593813000000006, 0.12209500000000018, -0.15216246199999997], 1)
([0.04681263700000007, 0.09495513000000005, 0.08898400000000017, -0.15151175199999997], 1)
([0.028373637000000066, 0.008480130000000044, 0.16578000000000018, -0.15817995199999998], 1)
([0.018323637000000066, 0.009328440000000044, 0.16331800000000019, -0.15361115199999997], 1)
([0.04833263700000007, 0.06745444000000005, 0.1410120000000002, -0.16026645199999998], 12)
([0.03821663700000007, 0.06555064000000005, 0.1319523000000002, -0.160236422], 5)
([0.02579263700000007, 0.04837564000000005, 0.1266970000000002, -0.162340022], 2)
([0.02733493700000007, 0.04955504000000005, 0.1098740000000002, -0.156387622], 7)
([0.02732208500000007, 0.05094134000000005, 0.1079089000000002, -0.15630586800000001], 4)
([0.08007808500000006, 0.05232764000000005, 0.1091227000000002, -0.144870868], 7)
([0.09598208500000006, 0.07444864000000005, 0.0779397000000002, -0.146043368], 7)
([0.09237958500000007, 0.02995864000000005, 0.0990067000000002, -0.13661256800000002], 5)
([0.09440118500000007, 0.049140640000000055, 0.0661787000000002, -0.14278936800000003], 2)
([0.09958118500000007, 0.05172714000000005, 0.0577702000000002, -0.13317756800000002], 24)
([0.08436118500000007, -0.014655859999999944, 0.1152612000000002, -0.134246668], 1)
([0.08222178500000007, -0.021484559999999944, 0.11622652000000021, -0.12228166800000001], 3)
([0.05593578500000007, -0.019684359999999942, 0.1341825200000002, -0.112553468], 1)
([0.05817898500000007, -0.02489905999999994, 0.1301439200000002, -0.100536468], 1)
([0.06837298500000008, -0.013870059999999941, 0.1071439200000002, -0.094596968], 1)
([0.08854998500000008, 0.00411194000000006, 0.0775629200000002, -0.092497968], 3)
([0.07096798500000008, 0.03150894000000006, 0.0522399200000002, -0.114837968], 8)
([0.07697298500000008, 0.050835940000000066, 0.019351920000000203, -0.11807946799999999], 1)
([0.07524338500000008, 0.039019940000000065, 0.0331699200000002, -0.110743468], 9)
([0.06985338500000007, -0.012650059999999935, 0.0675689200000002, -0.110222058], 4)
([0.04397338500000007, 0.026003940000000066, 0.0642329200000002, -0.123019058], 1)
([0.022763385000000073, 0.025445140000000064, 0.0837229200000002, -0.109489058], 10)
([0.013975985000000074, 0.0033241400000000657, 0.0832059100000002, -0.108489208], 6)
([0.048751985000000074, 0.09143414000000008, 0.0513199100000002, -0.117717708], 5)
([0.025076985000000072, 0.08706784000000008, 0.0682399100000002, -0.122019508], 5)
([0.06460598500000007, 0.06351984000000008, 0.09203191000000019, -0.117192108], 8)
([0.049377985000000076, -0.001269159999999922, 0.1495999100000002, -0.108459608], 1)
([0.07911998500000007, 0.08833084000000009, 0.1205759100000002, -0.118838608], 5)
([0.07401968500000007, 0.08597174000000009, 0.1207786400000002, -0.111205208], 5)
([0.04611168500000007, 0.028838740000000085, 0.18030864000000021, -0.106610608], 4)
([0.04911978500000007, 0.030576840000000084, 0.1627666400000002, -0.101718508], 1)
([0.040807685000000066, 0.030969910000000083, 0.16330354000000022, -0.104029008], 11)
([0.03715708500000007, 0.05989791000000008, 0.12684254000000023, -0.134632008], 17)
([0.012959085000000068, 0.05745611000000008, 0.13385714000000024, -0.130451108], 5)
([0.004325185000000068, 0.07680411000000008, 0.11012814000000024, -0.141348108], 13)
([0.05791118500000007, 0.11436111000000007, 0.09278314000000024, -0.130559108], 2)
([0.03282718500000008, 0.11208481000000008, 0.10766314000000024, -0.11849010800000001], 3)
([0.002562185000000078, 0.11146393000000007, 0.11452354000000024, -0.11904196800000001], 1)
([-0.011097814999999924, 0.11330553000000007, 0.12357744000000025, -0.10323596800000001], 6)
([-0.027917814999999922, 0.04518453000000007, 0.19497544000000025, -0.08991296800000001], 5)
([-0.007607814999999921, 0.06370453000000006, 0.16485444000000024, -0.08988293800000001], 14)
([0.0020629850000000796, 0.10213053000000007, 0.11554044000000024, -0.13120593800000002], 2)
([0.05481898500000008, 0.10351683000000006, 0.11675424000000025, -0.11977093800000002], 18)
([0.03924698500000008, 0.004708830000000053, 0.19784224000000025, -0.13057693800000003], 1)
([0.07416298500000008, 0.09041783000000006, 0.16751624000000026, -0.13649513800000004], 14)
([0.07660238500000008, 0.10515083000000006, 0.15332424000000025, -0.14234863800000006], 16)
([0.05748638500000008, 0.04354783000000005, 0.20938424000000025, -0.13749533800000005], 3)
([0.05814767500000008, 0.06846183000000006, 0.17998324000000024, -0.14371093800000004], 3)
([0.048722175000000076, 0.06885490000000005, 0.17756404000000023, -0.14055163800000003], 5)
([0.04876272000000008, 0.07514540000000006, 0.17115194000000022, -0.13296993800000004], 2)
([0.02367872000000008, 0.07286910000000006, 0.18603194000000023, -0.12090093800000004], 4)
([0.01125472000000008, 0.055694100000000066, 0.18077664000000024, -0.12300453800000004], 2)
([0.00854792000000008, 0.08836810000000006, 0.14521464000000023, -0.15389253800000005], 2)
([0.0015734200000000797, 0.07069610000000007, 0.14176724000000024, -0.15512973800000004], 3)
([0.00675342000000008, 0.07328260000000007, 0.13335874000000025, -0.14551793800000004], 4)
([0.046063420000000084, 0.09182360000000007, 0.13312449000000026, -0.13320393800000005], 13)
([0.043924020000000084, 0.08499490000000007, 0.13408981000000025, -0.12123893800000005], 2)
([0.023262020000000085, 0.08669160000000006, 0.12403581000000025, -0.12953643800000003], 5)
([0.019659520000000083, 0.04220160000000006, 0.14510281000000025, -0.12010563800000003], 8)
([0.02505312000000008, 0.08114560000000007, 0.09693681000000025, -0.16352363800000003], 5)
([0.02157212000000008, 0.07727600000000007, 0.09215271000000025, -0.15726093800000002], 20)
([0.05849412000000008, 0.037691000000000065, 0.13559171000000025, -0.14374393800000002], 1)
([0.07867112000000008, 0.05567300000000007, 0.10601071000000026, -0.14164493800000003], 5)
([0.05180712000000008, 0.05470035000000007, 0.11217701000000026, -0.14103301800000004], 6)
([0.04100512000000008, 0.07669635000000008, 0.08631501000000026, -0.15379201800000003], 3)
([0.02159612000000008, -0.010151649999999915, 0.17786501000000027, -0.14438711800000004], 4)
([0.031731120000000085, 0.07439935000000009, 0.16114501000000025, -0.16520211800000004], 5)
([0.022599320000000082, 0.05428635000000009, 0.15918851000000026, -0.16453846800000005], 3)
([0.01785282000000008, 0.010790350000000087, 0.17908951000000026, -0.15702146800000005], 8)
([0.03292982000000008, 0.030386350000000086, 0.14850551000000026, -0.15824576800000006], 6)
([0.08085582000000008, 0.047457350000000086, 0.14798850000000024, -0.14331976800000007], 8)
([0.07993388000000008, 0.05138885000000008, 0.14470390000000025, -0.14469916800000007], 8)
([0.059042880000000075, 0.046546650000000085, 0.16174390000000025, -0.12726416800000007], 4)
([0.048926880000000075, 0.04464285000000009, 0.15268420000000024, -0.12723413800000008], 2)
([0.05493188000000008, 0.054637350000000084, 0.13055820000000024, -0.12626014800000007], 6)
([0.06093688000000008, 0.07396435000000008, 0.09767020000000023, -0.12950164800000008], 9)
([0.030671880000000082, 0.07334347000000008, 0.10453060000000024, -0.13005350800000007], 3)
([0.02819738000000008, 0.09271147000000007, 0.07983360000000024, -0.13810530800000007], 3)
([0.01296938000000008, 0.027922470000000074, 0.13740160000000023, -0.12937280800000006], 21)
([0.04100238000000008, 0.11878447000000007, 0.10373360000000023, -0.13959680800000007], 3)
([0.026828380000000082, 0.09624947000000007, 0.11891360000000023, -0.13339870800000006], 8)
([0.022163280000000084, 0.11963247000000007, 0.08910160000000023, -0.14382970800000006], 2)
([0.027786480000000086, 0.12964747000000007, 0.06637560000000023, -0.14389019400000005], 1)
([0.020057680000000085, 0.05517447000000007, 0.13129560000000023, -0.14027829400000005], 17)
([-0.0016163199999999177, 0.05641597000000007, 0.12083060000000023, -0.14889909400000007], 1)
([0.003977580000000083, 0.05331197000000007, 0.12266130000000024, -0.14443379400000006], 15)
([-0.009436419999999916, 0.03414997000000007, 0.12110750000000024, -0.14563219400000005], 6)
([0.03616058000000009, 0.009938970000000071, 0.14752050000000025, -0.12946419400000003], 3)
([0.028581280000000087, 0.03528797000000007, 0.11705650000000024, -0.14209319400000003], 5)
([0.02348098000000009, 0.03292887000000007, 0.11725923000000024, -0.13445979400000002], 16)
([0.013873980000000088, 0.05989187000000007, 0.08603323000000024, -0.14758079400000002], 3)
([0.01611718000000009, 0.05467717000000007, 0.08199463000000023, -0.13556379400000002], 3)
([0.05852318000000009, 0.029825170000000067, 0.09807463000000023, -0.12840879400000002], 3)
([0.04249418000000009, 0.025934870000000068, 0.11427463000000024, -0.10930579400000001], 6)
([0.04311943000000009, 0.05523587000000007, 0.07880763000000024, -0.13604279400000002], 18)
([0.02874243000000009, 0.04091587000000007, 0.09995163000000024, -0.13183609400000001], 20)
([0.01976153000000009, -0.003946129999999937, 0.12196063000000024, -0.12676299400000002], 2)
([0.01407383000000009, 0.010227870000000064, 0.10770863000000024, -0.13800899400000002], 2)
([0.06215083000000009, 0.03255487000000006, 0.10507523000000024, -0.12247499400000003], 2)
([0.0824608300000001, 0.051074870000000064, 0.07495423000000023, -0.12244496400000003], 12)
([0.0763166300000001, 0.05016429000000006, 0.07177243000000023, -0.11742356400000004], 3)
([0.06208363000000009, 0.04027309000000006, 0.09535843000000023, -0.11347546400000004], 9)
([0.07560163000000009, 0.05086809000000006, 0.07192143000000023, -0.10947566400000004], 3)
([0.05572063000000009, 0.060862590000000064, 0.06906523000000023, -0.11648006400000004], 1)
([0.03030163000000009, 0.05428219000000006, 0.09590723000000023, -0.10452806400000003], 20)
([0.006103630000000089, 0.05184039000000006, 0.10292183000000023, -0.10034716400000003], 3)
([0.02099963000000009, 0.08612839000000005, 0.06261283000000023, -0.11460616400000002], 1)
([0.004358630000000089, 0.07245039000000006, 0.08258283000000023, -0.10937786400000002], 11)
([-0.012347369999999913, 0.05155039000000006, 0.09842283000000024, -0.10226166400000002], 10)
([-0.012600509999999914, 0.04981209000000006, 0.09728893000000025, -0.09006366400000002], 11)
([0.05564749000000009, 0.10199909000000007, 0.07186393000000024, -0.08460266400000002], 2)
([0.05090099000000009, 0.05850309000000007, 0.09176493000000024, -0.07708566400000003], 14)
([0.04987759000000009, 0.07669209000000007, 0.06959593000000025, -0.08275816400000002], 3)
([0.010466590000000088, -0.052099909999999944, 0.20019293000000024, -0.11588316400000002], 2)
([-0.012675409999999911, -0.03126190999999994, 0.19551163000000024, -0.13265016400000001], 1)
([0.0026805900000000903, 0.06051009000000005, 0.17279363000000025, -0.14000366400000003], 17)
([0.022990590000000092, 0.07903009000000005, 0.14267263000000024, -0.13997363400000004], 6)
([0.012874590000000092, 0.07712629000000006, 0.13361293000000024, -0.13994360400000005], 11)
([0.018879590000000092, 0.08712079000000006, 0.11148693000000023, -0.13896961400000005], 9)
([0.06101359000000009, 0.05906079000000006, 0.13160293000000023, -0.13222841400000004], 7)
([0.06529659000000008, 0.049562690000000055, 0.12087193000000022, -0.12901741400000005], 10)
([0.044634590000000085, 0.05125939000000006, 0.11081793000000023, -0.13731491400000007], 9)
([0.030460590000000086, 0.028724390000000058, 0.12599793000000023, -0.13111681400000005], 3)
([0.009829590000000086, 0.013577390000000059, 0.13818793000000024, -0.12666441400000006], 4)
([0.014910890000000086, 0.01835729000000006, 0.11838393000000023, -0.12089301400000006], 2)
([-0.0011181099999999153, 0.014466990000000061, 0.13458393000000024, -0.10179001400000007], 4)
([0.020155890000000086, 0.06640599000000007, 0.11661293000000024, -0.11355301400000006], 14)
([0.016075490000000085, 0.07182739000000007, 0.11134043000000024, -0.10696701400000007], 4)
([0.005520490000000083, 0.07977329000000008, 0.09437243000000024, -0.11164381400000006], 3)
([-0.009731509999999917, 0.017239290000000074, 0.14789643000000025, -0.10565261400000006], 6)
([-0.0023555099999999166, 0.06576429000000007, 0.09991043000000024, -0.16231161400000005], 3)
([-0.005836509999999916, 0.06189469000000007, 0.09512633000000024, -0.15604891400000004], 14)
([-0.014968309999999917, 0.04178169000000007, 0.09316983000000024, -0.15538526400000005], 9)
([-0.009345109999999917, 0.051796690000000076, 0.07044383000000023, -0.15544575000000005], 1)
([0.031334890000000074, 0.022433690000000076, 0.09243583000000023, -0.15043735000000005], 3)
([0.027732390000000072, -0.022056309999999926, 0.11350283000000023, -0.14100655000000006], 3)
([0.000704390000000072, -0.005729309999999925, 0.12186263000000024, -0.14192048000000007], 1)
([0.011341390000000073, 0.03122769000000008, 0.08026863000000023, -0.16129948000000008], 1)
([0.027151390000000074, 0.03991859000000008, 0.057130630000000224, -0.15305828000000007], 11)
([0.06656539000000007, 0.007016590000000079, 0.08880463000000022, -0.14219228000000006], 4)
([0.050389390000000076, 0.017942590000000078, 0.08525443000000021, -0.14818808000000006], 7)
([0.029330390000000074, 0.029757590000000077, 0.07992203000000021, -0.15645968000000005], 1)
([0.023371690000000073, 0.054568590000000076, 0.05124903000000021, -0.16544248000000006], 2)
([0.030814490000000073, 0.016845590000000077, 0.0673800300000002, -0.14968848000000007], 4)
([0.030801638000000072, 0.018231890000000077, 0.0654149300000002, -0.14960672600000008], 1)
([0.03201423800000007, 0.020466590000000076, 0.060682230000000205, -0.13990432600000008], 3)
([0.03502233800000007, 0.022204690000000075, 0.04314023000000021, -0.13501222600000007], 3)
([0.01834533800000007, -0.049330309999999926, 0.12206923000000021, -0.12533572600000006], 1)
([0.008738338000000068, -0.022367309999999925, 0.0908432300000002, -0.13845672600000006], 1)
([0.05617033800000007, -0.0012813099999999245, 0.0922112300000002, -0.12191372600000006], 10)
([0.06628733800000007, 0.007740690000000076, 0.0687052300000002, -0.11764232600000006], 1)
([0.05548533800000007, 0.02973669000000008, 0.042843230000000204, -0.13040132600000007], 2)
([0.02188133800000007, 0.02646709000000008, 0.06416723000000021, -0.12438432600000007], 7)
([0.004332338000000071, 0.02565998000000008, 0.056589830000000216, -0.12809132600000006], 27)
([0.01488433800000007, 0.037516980000000075, 0.03017883000000022, -0.12698802600000006], 3)
([0.00878683800000007, -0.0025030199999999253, 0.04864983000000022, -0.12097102600000006], 1)
([0.01080843800000007, 0.016678980000000076, 0.015821830000000217, -0.12714782600000007], 3)
([-0.015103561999999932, 0.015623580000000076, 0.028619830000000217, -0.11673382600000007], 5)
([0.017310438000000067, 0.019720680000000077, 0.04263483000000022, -0.10478182600000006], 3)
([0.009564338000000066, 0.0009526800000000772, 0.06665783000000022, -0.09346282600000007], 3)
([0.05253333800000007, 0.07712268000000008, 0.042783830000000224, -0.10307922600000007], 1)
([0.03405033800000007, 0.08022648000000009, 0.050518230000000226, -0.08889022600000007], 1)
([0.00808933800000007, -0.013263519999999918, 0.14846023000000022, -0.09169202600000007], 5)
([0.053796338000000075, 0.058830480000000074, 0.11566623000000023, -0.10663602600000006], 2)
([0.06120303800000008, 0.07612948000000008, 0.08370323000000024, -0.10809302600000006], 1)
([0.03433903800000008, 0.07515683000000008, 0.08986953000000024, -0.10748110600000006], 3)
([0.02690663800000008, 0.07186663000000007, 0.08559103000000023, -0.10514940600000006], 22)
([0.01105563800000008, 0.05030463000000007, 0.10267303000000023, -0.09613240600000006], 7)
([0.018462338000000078, 0.06760363000000008, 0.07071003000000023, -0.09758940600000006], 8)
([0.014859838000000078, 0.02311363000000008, 0.09177703000000023, -0.08815860600000006], 4)
([0.0040578380000000774, 0.04510963000000008, 0.06591503000000024, -0.10091760600000006], 3)
([0.010062838000000077, 0.06443663000000008, 0.033027030000000235, -0.10415910600000006], 1)
([-0.003932161999999923, 0.04527463000000008, 0.05818103000000024, -0.09816790600000005], 2)
([-0.021481161999999922, 0.04446752000000008, 0.05060363000000024, -0.10187490600000006], 4)
([-0.01585796199999992, 0.05448252000000008, 0.027877630000000236, -0.10193539200000006], 5)
([0.025796038000000084, 0.019987520000000085, 0.06430763000000023, -0.09105639200000006], 5)
([0.019651838000000085, 0.019076940000000084, 0.06112583000000023, -0.08603499200000006], 3)
([0.024733138000000085, 0.023856840000000084, 0.041321830000000226, -0.08026359200000006], 9)
([0.020638038000000084, 0.022304740000000083, 0.041927280000000226, -0.08115166200000007], 1)
([0.024921038000000083, 0.012806640000000083, 0.03119628000000023, -0.07794066200000006], 2)
([0.018013238000000084, 0.007798940000000082, 0.027654580000000227, -0.07319086200000006], 4)
([0.001307238000000082, -0.013101059999999916, 0.04349458000000023, -0.06607466200000006], 8)
([0.016663238000000084, 0.07867094000000008, 0.02077658000000023, -0.07342816200000006], 6)
([0.018205538000000084, 0.07985034000000008, 0.003953580000000227, -0.06747576200000006], 1)
([0.0029535380000000836, 0.01731634000000007, 0.05747758000000023, -0.06148456200000006], 2)
([-0.011140461999999917, -0.003935659999999931, 0.05643788000000023, -0.06340706200000006], 4)
([0.028025538000000082, 0.09855534000000007, 0.015511880000000228, -0.10806606200000006], 5)
([-0.005858461999999915, 0.016405340000000074, 0.11882688000000023, -0.09824736200000006], 1)
([0.009951538000000086, 0.025096240000000075, 0.09568888000000023, -0.09000616200000006], 8)
([0.03386853800000009, 0.07066124000000007, 0.045800880000000224, -0.11899316200000006], 2)
([0.023752538000000087, 0.06875744000000007, 0.03674118000000022, -0.11896313200000005], 1)
([-0.0057454619999999165, -0.013972559999999926, 0.13938718000000022, -0.10733413200000005], 1)
([0.03053153800000008, -0.004143559999999925, 0.14627328000000023, -0.10099383200000006], 3)
([0.023496938000000078, 0.025426440000000074, 0.11032628000000022, -0.13245083200000007], 4)
([0.07092893800000008, 0.04651244000000007, 0.11169428000000022, -0.11590783200000007], 1)
([0.057514938000000085, 0.027350440000000073, 0.11014048000000022, -0.11710623200000007], 22)
([0.06815193800000008, 0.06430744000000008, 0.06854648000000022, -0.13648523200000007], 5)
([0.04691093800000008, -0.004661559999999926, 0.12453848000000022, -0.14120083200000005], 24)
([0.08168693800000008, 0.08344844000000008, 0.0926524800000002, -0.15042933200000005], 2)
([0.05888293800000008, 0.08038584000000008, 0.1059994800000002, -0.13666633200000006], 1)
([0.05167613800000008, 0.01280284000000008, 0.16440748000000022, -0.13042943200000007], 2)
([0.04880653800000008, 0.04458684000000008, 0.12864048000000022, -0.16232543200000007], 15)
([0.04788459800000008, 0.048518340000000076, 0.12535588000000022, -0.16370483200000008], 10)
([0.03694359800000008, 0.07159034000000007, 0.10011888000000023, -0.17815783200000007], 14)
([0.05202059800000008, 0.09118634000000007, 0.06953488000000023, -0.17938213200000008], 1)
([0.02605959800000008, -0.0023036599999999297, 0.16747688000000022, -0.18218393200000008], 4)
([0.02668484800000008, 0.02699734000000007, 0.13200988000000022, -0.2089209320000001], 16)
([0.02421034800000008, 0.046365340000000074, 0.10731288000000022, -0.21697273200000008], 1)
([0.013655348000000078, 0.05431124000000007, 0.09034488000000022, -0.2216495320000001], 4)
([0.05772734800000007, 0.05360759000000007, 0.11076088000000023, -0.2103305320000001], 1)
([0.03393034800000007, 0.039205590000000075, 0.12203388000000023, -0.2087229320000001], 8)
([0.019149348000000066, 0.04063329000000007, 0.11041188000000024, -0.2135808320000001], 13)
([0.029701348000000065, 0.05249029000000007, 0.08400088000000025, -0.2124775320000001], 5)
([0.041899348000000065, 0.07347229000000007, 0.052046880000000253, -0.21119323200000012], 2)
([0.04404244800000007, 0.06651939000000007, 0.06081798000000026, -0.20822793200000012], 8)
([0.018402448000000068, 0.04946839000000007, 0.07584398000000026, -0.20495223200000012], 4)
([0.009043748000000068, -0.0015396099999999274, 0.12121098000000025, -0.19108623200000013], 3)
([0.06107574800000007, 0.033576390000000074, 0.10867298000000025, -0.18095723200000013], 1)
([0.04041374800000007, 0.035273090000000076, 0.09861898000000024, -0.18925473200000015], 2)
([0.03438834800000007, 0.05251009000000008, 0.07711798000000024, -0.19695743200000015], 7)
([0.03560094800000007, 0.05474479000000008, 0.07238528000000023, -0.18725503200000015], 3)
([0.03534780800000007, 0.05300649000000008, 0.07125138000000024, -0.17505703200000017], 3)
([0.08169980800000007, 0.022919490000000077, 0.09802438000000024, -0.16293703200000018], 2)
([0.06732280800000007, 0.008599490000000078, 0.11916838000000024, -0.15873033200000017], 10)
([0.07751680800000008, 0.019628490000000078, 0.09616838000000025, -0.15279083200000015], 9)
([0.04732380800000008, 0.03740349000000008, 0.10354288000000025, -0.15732543200000015], 31)
([0.04122630800000008, -0.002616509999999919, 0.12201388000000025, -0.15130843200000016], 9)
([0.02264230800000008, 0.07624349000000008, 0.10537088000000025, -0.16969243200000017], 6)
([0.005163308000000078, 0.018013490000000076, 0.16406988000000025, -0.15757243200000018], 2)
([6.300800000007788e-05, 0.015654390000000077, 0.16427261000000026, -0.14993903200000017], 1)
([0.03437500800000008, 0.07829139000000007, 0.14475961000000026, -0.15355553200000016], 15)
([0.03223560800000008, 0.07146269000000008, 0.14572493000000025, -0.14159053200000016], 10)
([0.034675008000000083, 0.08619569000000007, 0.13153293000000024, -0.14744403200000017], 7)
([0.027242608000000085, 0.08290549000000008, 0.12725443000000025, -0.14511233200000018], 7)
